%YAML:1.0
---
opencv_ml_svm:
   format: 3
   svmType: C_SVC
   kernel:
      type: LINEAR
   C: 1.
   term_criteria: { epsilon:1.1920928955078125e-07, iterations:1000 }
   var_count: 384
   class_count: 7
   class_labels: !!opencv-matrix
      rows: 7
      cols: 1
      dt: i
      data: [ 0, 1, 2, 3, 4, 5, 6 ]
   sv_total: 21
   support_vectors:
      - [ 7.25477189e-02, 4.85373586e-02, 5.06320149e-02,
          -1.80986121e-01, -2.36509681e-01, -3.04931104e-02,
          1.68445706e-01, 1.63665771e-01, 2.61793822e-01, 9.42703858e-02,
          1.25746459e-01, 4.82958913e-01, 3.60595901e-03,
          -1.06650330e-02, 4.52942103e-02, 8.77999425e-01,
          1.03475022e+00, 1.68204379e+00, -2.59525627e-01,
          -2.74334043e-01, -3.89880896e-01, 9.27725971e-01,
          1.13186574e+00, 1.78224409e+00, -2.71138072e-01,
          -3.23883265e-01, -4.48632061e-01, 9.32325423e-01,
          1.11193836e+00, 1.74789536e+00, 9.16433483e-02, 4.07246314e-02,
          1.56600520e-01, 8.37908864e-01, 9.85901117e-01, 1.57622409e+00,
          1.23273477e-01, 1.61267385e-01, 2.27207407e-01, 2.10521579e-01,
          1.98235109e-01, 4.88972604e-01, 8.32114518e-02, 8.99703652e-02,
          1.14167295e-01, -3.55401523e-02, -9.19049755e-02,
          6.19303547e-02, -8.58095437e-02, -6.59048408e-02,
          2.77547669e-02, -2.97410369e-01, -4.22783822e-01,
          -8.96364450e-02, -1.16059519e-01, -1.47047132e-01,
          -2.26293385e-01, 1.75816983e-01, 1.46313533e-01,
          5.56392670e-01, -2.90364355e-01, -3.55740726e-01,
          -5.25002658e-01, 2.73563955e-02, 1.05029568e-02,
          1.50577381e-01, -2.03627035e-01, -2.81019658e-01,
          -4.33291733e-01, 2.05971256e-01, 2.65810281e-01,
          3.30574781e-01, -1.07145362e-01, -1.62809059e-01,
          -2.76679546e-01, 1.95826888e-01, 2.19151080e-01,
          2.07690984e-01, -3.41840297e-01, -3.94702375e-01,
          -6.08655035e-01, 1.47841737e-01, 4.29067276e-02,
          5.69489188e-02, -4.94555384e-02, -9.78804454e-02,
          -1.63270831e-01, 4.53572422e-01, 3.72756541e-01,
          7.51882374e-01, -3.14291716e-02, -4.86190952e-02,
          -1.43351173e-02, -4.54497291e-03, -7.51461536e-02,
          2.31864259e-01, 1.14472300e-01, 1.06000528e-01, 1.47274390e-01,
          -2.25292016e-02, -1.06469862e-01, 4.28255290e-01,
          1.76251549e-02, 4.35599079e-03, -8.83566588e-03,
          3.71242873e-02, 2.50729006e-02, 2.64007330e-01, 1.31878316e-01,
          1.55014426e-01, 2.33291969e-01, -3.95167917e-01,
          -5.10782421e-01, -6.61312401e-01, 1.28794342e-01,
          1.54288173e-01, 2.05959395e-01, -9.87333432e-02,
          -1.28449470e-01, -2.35635638e-01, 1.71992853e-02,
          2.32307650e-02, 2.92512197e-02, -3.68066207e-02,
          -5.06396443e-02, -2.30677232e-01, 1.73148125e-01,
          2.12910593e-01, 3.19706827e-01, -3.12165827e-01,
          -4.19274539e-01, -6.73092544e-01, -1.56947579e-02,
          5.31026609e-02, 1.23005830e-01, -2.01290492e-02,
          -1.39402270e-01, 1.33742997e-02, -3.08069959e-02,
          -2.30124686e-02, 1.14944009e-02, 1.00427596e-02,
          2.75692879e-03, 4.24298584e-01, -1.20445333e-01,
          -1.37888014e-01, -2.34208107e-01, 9.76896584e-02,
          -1.18495030e-02, 4.32749569e-01, 3.70681994e-02,
          3.30636352e-02, 3.67196389e-02, 5.01487195e-01, 4.59620357e-01,
          7.44521141e-01, 1.18797503e-01, 9.19256732e-02, 1.03446566e-01,
          3.22272062e-01, 3.52282852e-01, 5.74035168e-01, 5.86721823e-02,
          4.83269170e-02, 1.95290018e-02, 2.97015101e-01, 2.73604780e-01,
          2.16331273e-01, 1.23937547e-01, 1.25003412e-01, 1.58867955e-01,
          2.96131492e-01, 2.76650965e-01, 1.60075411e-01, 8.88361409e-02,
          1.00407340e-01, 1.36969358e-01, 2.29240999e-01, 2.82947272e-01,
          3.80409360e-01, 5.73714897e-02, 5.34860454e-02, 5.96925393e-02,
          1.08037233e-01, 1.01761930e-01, 3.74942660e-01,
          -4.36896794e-02, -3.74527909e-02, -8.88064876e-02,
          -1.27246410e-01, -1.56989932e-01, 2.97856390e-01,
          -6.48742691e-02, -6.68984652e-02, -1.12201847e-01,
          -2.56684154e-01, -4.75829750e-01, -4.84364569e-01,
          -2.29503676e-01, -2.80017585e-01, -3.53985250e-01,
          -2.09310710e-01, -3.64957482e-01, -2.79861450e-01,
          -4.04312968e-01, -4.31382954e-01, -4.75358814e-01,
          -2.19171032e-01, -2.74038315e-01, -1.89478323e-01,
          -2.50254273e-01, -2.10610047e-01, -1.52710557e-01,
          -1.81255922e-01, -1.93787307e-01, -3.07216793e-01,
          -2.55164117e-01, -2.75032192e-01, -2.66182184e-01,
          -1.25871927e-01, -1.51337236e-01, -2.23341569e-01,
          -2.73458481e-01, -3.17902774e-01, -3.73293519e-01,
          -2.42215499e-01, -2.57864535e-01, -2.42597505e-01,
          -1.60024092e-01, -1.74606100e-01, -2.72071451e-01,
          -1.92844748e-01, -2.44540453e-01, -1.79294109e-01,
          -8.48734081e-02, -8.51513296e-02, -1.88826486e-01,
          -3.48817587e-01, -4.02415276e-01, -4.44737047e-01,
          3.67881395e-02, 8.31433907e-02, 1.56145453e-01,
          -3.31461728e-01, -4.90175128e-01, -3.84468943e-01,
          1.33171618e-01, 1.53171360e-01, 1.57347098e-01,
          -2.45598644e-01, -4.12069201e-01, -4.65742052e-01,
          4.75079827e-02, 8.41516852e-02, 1.66166753e-01,
          -3.79462540e-01, -4.73949969e-01, -4.05954212e-01,
          -1.72485292e-01, -2.15234280e-01, -9.29223895e-02,
          -5.01291215e-01, -6.01699829e-01, -4.85804021e-01,
          -6.14351928e-02, -6.36733025e-02, 2.49799192e-02,
          -3.03424001e-01, -3.88392508e-01, -2.90912539e-01,
          1.25440449e-01, 1.18884645e-01, 1.38952434e-01,
          -2.15244919e-01, -3.11622500e-01, -3.62839669e-01,
          8.39405581e-02, 7.34250546e-02, 9.37464908e-02,
          -2.91318774e-01, -4.20397729e-01, -5.11643410e-01,
          4.10814248e-02, 1.96572598e-02, 4.82836254e-02,
          -4.51698065e-01, -5.13337076e-01, -5.86929679e-01,
          8.90376568e-02, 9.19050500e-02, 1.05041854e-01,
          -4.56502475e-02, -4.73708436e-02, 3.19278181e-01,
          1.01871183e-02, 2.27639489e-02, 1.08531825e-01,
          -1.60190657e-01, -2.63788521e-01, -1.87613845e-01,
          -3.94581892e-02, -1.22797728e-01, -1.80405736e-01,
          -3.29265803e-01, -3.63829881e-01, -4.92556781e-01,
          1.64194629e-01, 1.96284220e-01, -6.18599029e-03,
          -3.36203188e-01, -2.11073920e-01, -3.28479260e-01,
          -1.46458978e-02, -4.81856689e-02, -1.84554324e-01,
          -1.86782613e-01, -6.98291808e-02, -2.05311805e-01,
          -4.66776825e-03, -6.92586005e-02, -1.23952731e-01,
          -1.85126737e-01, -3.39140862e-01, -5.30905366e-01,
          2.69770976e-02, 4.83820327e-02, 1.16116345e-01,
          -1.59956723e-01, -2.74438918e-01, -1.91453263e-01,
          -7.38259479e-02, -6.23015538e-02, -2.39526834e-02,
          -6.91413820e-01, -6.60657644e-01, -4.48464692e-01,
          -1.78258359e-01, -1.62513956e-01, -1.09086022e-01,
          -3.02122325e-01, -2.60758489e-01, 1.29806116e-01,
          -7.12120533e-02, -9.19238627e-02, -1.17707074e-01,
          -5.33238709e-01, -6.69760644e-01, -4.61236745e-01,
          2.13664219e-01, 1.95848569e-01, 2.41791874e-01,
          -3.04294318e-01, -5.04391789e-01, -5.12709320e-01,
          3.15295517e-01, 2.73214132e-01, 4.02654409e-01,
          -4.41367716e-01, -5.77757895e-01, -7.38298357e-01,
          2.83731312e-01, 3.09045225e-01, 4.26920563e-01,
          -3.71518612e-01, -5.36627054e-01, -7.42392004e-01,
          9.82333869e-02, 1.20146945e-01, 1.95658281e-01,
          -4.52724844e-03, -2.13288084e-01, -3.43521088e-01,
          -9.54588577e-02, -6.27644062e-02, -6.72033578e-02,
          -2.13269785e-01, -3.20883453e-01, -1.92055807e-01,
          1.24853358e-01, 1.55404627e-01, 1.76324844e-01,
          -5.50000906e-01, -4.26381767e-01, -9.98946577e-02 ]
      - [ -9.24493298e-02, -1.48417175e-01, -1.36070937e-01,
          2.15791851e-01, 2.61876613e-01, 6.01760328e-01, 2.21420825e-02,
          3.16703366e-03, -1.39288791e-02, 2.97436416e-01,
          3.51371139e-01, 6.50524139e-01, 1.67891413e-01, 1.78766370e-01,
          1.83781043e-01, 4.58703399e-01, 5.44249892e-01, 8.48785818e-01,
          1.55187532e-01, 1.90238819e-01, 1.73297346e-01, 5.62886000e-01,
          7.04854906e-01, 1.04703617e+00, 7.32230619e-02, 9.39043164e-02,
          3.10456622e-02, 4.58152086e-01, 6.21238053e-01, 9.13983524e-01,
          1.22727938e-01, 1.36187136e-01, 9.71728042e-02, 1.08450353e-01,
          1.43616319e-01, 3.49618524e-01, 8.92559290e-02, 4.13425118e-02,
          9.26976372e-03, -2.36880392e-01, -2.24341199e-01,
          -1.23473041e-01, 8.34923238e-02, 6.10364005e-02,
          5.88492230e-02, -9.59740803e-02, 7.71898031e-02,
          2.22922996e-01, -4.94312532e-02, -7.25696012e-02,
          -1.17577367e-01, -2.21331954e-01, -2.77496159e-01,
          3.62941660e-02, -2.11522318e-02, -6.81778863e-02,
          -1.55360371e-01, 2.04437107e-01, 1.92627326e-01,
          3.03927690e-01, -1.93385169e-01, -2.71057189e-01,
          -4.19492096e-01, 3.96543294e-01, 3.15311641e-01,
          2.48615444e-01, -1.81858748e-01, -2.42138073e-01,
          -3.45259011e-01, 3.38644415e-01, 2.88029879e-01,
          2.15158030e-01, -1.49043187e-01, -1.92660213e-01,
          -2.26486579e-01, 1.79379955e-02, 4.62495275e-02,
          8.34428966e-02, -2.53309846e-01, -2.96429574e-01,
          -3.56718481e-01, -1.60342023e-01, -2.17546985e-01,
          -2.58600742e-01, -4.89306636e-02, -6.67650029e-02,
          -9.48850811e-02, -6.72682077e-02, -1.59825027e-01,
          -2.20058575e-01, 6.69185370e-02, 5.54824285e-02,
          4.01882082e-02, 2.83106237e-05, 1.30472437e-01, 2.97592431e-01,
          4.30608504e-02, -7.65017606e-03, -5.21088541e-02,
          -9.42957029e-02, -3.00118774e-01, -1.30654857e-01,
          -6.70420527e-02, -8.41438398e-02, -6.01686202e-02,
          2.44403258e-01, 1.27903789e-01, 2.30982564e-02,
          -1.33865811e-02, 1.59863830e-02, 1.04399323e-01,
          5.41267619e-02, -1.12885416e-01, -4.24066812e-01,
          1.30128721e-02, 4.76810709e-02, 6.69689029e-02, 1.02795422e-01,
          6.38415366e-02, -8.79274756e-02, 5.83850071e-02,
          9.80383828e-02, 1.46345720e-01, 2.23288164e-02, 2.91846618e-02,
          1.51317697e-02, 1.55647933e-01, 2.06994325e-01, 2.73042679e-01,
          -1.77323490e-01, -3.25570971e-01, -4.30387557e-01,
          5.30719459e-02, 1.06097318e-01, 1.83270782e-01,
          -1.81808889e-01, -2.77273357e-01, -2.91757464e-01,
          -5.26100881e-02, -4.00993079e-02, -2.51102317e-02,
          -4.09806669e-02, -1.59041025e-02, 8.81224424e-02,
          -8.29403102e-02, -1.17950045e-01, -1.81653649e-01,
          -9.84364450e-02, -4.23311114e-01, -4.80757922e-01,
          -1.28088044e-02, -1.28870262e-02, -1.07835606e-02,
          2.38949507e-01, 2.60366835e-02, -1.53012257e-02,
          -3.95307653e-02, -9.29997116e-02, -8.20766017e-02,
          3.40552241e-01, 1.84218705e-01, 1.57614835e-02, 7.89224580e-02,
          5.47652096e-02, 7.18109757e-02, 4.37398165e-01, 3.97109479e-01,
          2.73697346e-01, -3.11363172e-02, -4.81957942e-02,
          -9.27055627e-02, 6.00560248e-01, 6.92480266e-01,
          7.11848617e-01, 1.99960992e-02, -1.16016809e-02,
          -1.89856142e-02, 5.75041056e-01, 5.79867065e-01,
          5.71500778e-01, 1.15568060e-02, -3.74906324e-02,
          -6.56207576e-02, 7.73361251e-02, 1.87006406e-02,
          8.48233178e-02, 5.87119125e-02, 2.40617320e-02,
          -3.12388614e-02, 7.61065111e-02, -5.12519069e-02,
          -1.45829991e-01, -2.29109842e-02, -6.34020567e-03,
          -1.74855366e-02, -4.29282784e-01, -7.71426558e-01,
          -1.01729560e+00, 4.78914082e-02, 4.41061892e-02,
          1.20430645e-02, 1.32204285e-02, -2.22677007e-01,
          -3.66106600e-01, -4.01370376e-02, 3.45863849e-02,
          5.82218915e-02, 5.41790128e-01, 4.27719027e-01, 2.51478434e-01,
          -1.47218615e-01, -1.13772117e-01, -8.69289413e-02,
          6.77493870e-01, 6.27518952e-01, 3.73363703e-01,
          -5.27492398e-03, 1.82983547e-03, 4.39178720e-02,
          4.64008898e-01, 4.81515348e-01, 4.24717844e-01,
          -1.05653502e-01, -1.08749829e-01, -8.39836150e-02,
          1.64574787e-01, 7.95535818e-02, 9.68520790e-02, 5.90427639e-03,
          2.54086182e-02, 5.79512045e-02, -5.21628968e-02,
          -2.51302391e-01, -2.21197203e-01, -6.70223311e-02,
          -1.10771418e-01, -3.91777679e-02, -1.67483538e-01,
          -3.15047443e-01, -4.43438381e-01, 8.06245431e-02,
          1.42075703e-01, 2.17072457e-01, -3.45407546e-01,
          -6.53982162e-01, -7.73694932e-01, -1.45009622e-01,
          -1.66785806e-01, -1.34392023e-01, -2.16135547e-01,
          -4.76230204e-01, -5.27228773e-01, -1.50989428e-01,
          -1.40259385e-01, -6.03164136e-02, 4.41372544e-01,
          4.89642084e-01, 5.34990489e-01, -2.54565924e-01,
          -2.17152834e-01, -4.73309569e-02, 2.45068908e-01,
          4.52971429e-01, 5.15183628e-01, -6.45637438e-02,
          -3.60741988e-02, 8.90441909e-02, 2.78877288e-01,
          4.06923652e-01, 6.22656047e-01, 5.19713163e-02, 2.90648099e-02,
          1.17782630e-01, 2.27022067e-01, 1.38533369e-01, 4.01199043e-01,
          1.29837440e-02, 1.48543613e-02, 6.66567832e-02,
          -1.94218725e-01, -4.52180177e-01, -3.23090822e-01,
          2.90155951e-02, 5.53974137e-02, 9.00944173e-02,
          -4.77904141e-01, -6.84225202e-01, -5.81978619e-01,
          1.08980136e-02, 3.93105298e-02, 4.48071286e-02,
          -2.40135342e-01, -2.88073421e-01, -4.80423635e-03,
          9.80490372e-02, 1.31623670e-01, 1.35553390e-01,
          -2.97171801e-01, -5.49763322e-01, -6.06027842e-01,
          -3.26599367e-02, -8.15666690e-02, -1.64623663e-01,
          9.82380100e-03, -1.28580272e-01, -1.24480926e-01,
          1.09905705e-01, 1.42315462e-01, -4.10213694e-02,
          -4.34535705e-02, 2.89816316e-02, 4.25574213e-01,
          -6.86297799e-03, -2.10468229e-02, -1.53435722e-01,
          1.73583925e-02, 6.33187070e-02, 4.43268508e-01,
          -8.13510641e-02, -8.22861418e-02, -1.89044878e-01,
          -1.44916579e-01, -3.29137802e-01, -1.60465255e-01,
          -1.42845944e-01, -3.53286006e-02, -2.51536202e-02,
          -3.05117100e-01, -3.29955429e-01, -1.40214115e-01,
          -1.54553786e-01, -7.60121495e-02, -5.01885414e-02,
          -4.00630623e-01, -4.37512338e-01, -1.66260079e-01,
          3.21687609e-02, 1.32354337e-03, 5.90537824e-02,
          -3.56036603e-01, -3.71220499e-01, -1.11448139e-01,
          -9.34771672e-02, -1.18906923e-01, -1.00075223e-01,
          -2.81536788e-01, -4.13133860e-01, -3.39353442e-01,
          1.36519223e-02, 6.95788711e-02, 1.54344082e-01, 6.74787955e-03,
          -5.71875311e-02, 5.22017665e-02, -3.37528363e-02,
          -1.17582731e-01, -8.48049000e-02, 2.92235101e-03,
          4.76598106e-02, 1.19139113e-01, -2.67267190e-02,
          -1.36045769e-01, -1.95238784e-01, -5.29411770e-02,
          -1.32749319e-01, -6.29860759e-02, -8.00313335e-03,
          -4.59795929e-02, -1.07949927e-01, -2.99217939e-01,
          -5.39356768e-01, -6.02545142e-01, 3.45289819e-02,
          7.29635432e-02, 1.03393659e-01, -5.57172954e-01,
          -4.16925937e-01, -2.27221280e-01, 6.15618341e-02,
          1.22045167e-01, 1.80173755e-01, -5.28129876e-01,
          -2.99314767e-01, 8.49749520e-02 ]
      - [ 1.15905173e-01, 5.20497859e-02, 1.73711795e-02, 4.85999584e-01,
          2.78401554e-01, 4.78190333e-01, -7.53912777e-02,
          -1.50552288e-01, -2.60009557e-01, 7.06197694e-02,
          -2.59825408e-01, -1.31517768e-01, 2.97480877e-02,
          1.12410136e-01, 5.35757393e-02, -4.43890058e-02,
          -3.54141563e-01, -2.91199863e-01, -9.22844633e-02,
          1.08954785e-02, -4.22475599e-02, 1.42163679e-01,
          -6.56499714e-02, -5.32472320e-02, -1.51086897e-01,
          -6.03592172e-02, -1.04199000e-01, 2.36621365e-01,
          7.57998601e-02, 1.47677705e-01, -7.00284075e-03,
          -1.44541301e-02, -9.75050703e-02, 1.22129150e-01,
          -5.46700992e-02, 1.42376855e-01, 1.67112760e-02,
          6.18736111e-02, 6.26995787e-02, 2.42858335e-01, 1.09908171e-01,
          4.30782050e-01, 9.59818885e-02, 1.17307656e-01, 1.39210522e-01,
          5.42948544e-01, 4.49923545e-01, 6.41183317e-01,
          -2.21148297e-01, -2.38297135e-01, -1.79579183e-01,
          1.37791216e-01, -1.84073195e-01, 3.55094820e-02,
          1.86728965e-02, 5.65533042e-02, 1.23186857e-01,
          -4.06895280e-01, -7.31442630e-01, -7.23573625e-01,
          -2.41388716e-02, -1.02355210e-02, 1.24876633e-01,
          -2.61161059e-01, -4.29479688e-01, -2.18327507e-01,
          -1.00585325e-02, -1.93646997e-02, 7.78829679e-02,
          -1.16852477e-01, -2.57146657e-01, -2.12622099e-02,
          -9.03399850e-05, 3.43042426e-02, 1.75624385e-01,
          -2.38753945e-01, -2.54002988e-01, 1.63622245e-01,
          3.01493034e-02, 1.73953906e-01, 3.48721236e-01,
          -5.36804423e-02, -2.79070362e-02, 4.00152117e-01,
          -7.73573741e-02, -3.00643425e-02, 5.59054352e-02,
          -1.49370089e-01, -1.47443235e-01, 1.55042350e-01,
          -8.95496160e-02, -4.47626300e-02, -3.32299918e-02,
          -2.22371146e-02, -5.47668897e-02, 1.08687542e-01,
          8.67088810e-02, 8.32526460e-02, 5.05311154e-02, 2.50083596e-01,
          1.65484454e-02, 2.09136590e-01, 1.63188294e-01, 1.54307663e-01,
          1.15034401e-01, 3.36727917e-01, 2.76152700e-01, 5.69158137e-01,
          1.83945045e-01, 1.69175193e-01, 1.78416055e-02, 1.12076446e-01,
          1.12899058e-02, 1.25314578e-01, 2.35818639e-01, 2.48122439e-01,
          2.00729251e-01, 3.46716583e-01, 2.36839682e-01, 3.70655179e-01,
          3.23669821e-01, 2.93928444e-01, 2.88381666e-01, 2.73965180e-01,
          2.59770930e-01, 5.73805630e-01, 1.57187089e-01, 1.11657538e-01,
          4.33238149e-02, 7.14131221e-02, 1.11331373e-01, 5.56806326e-01,
          3.99394054e-03, 2.22328845e-02, 2.74010468e-04,
          -1.21448658e-01, -1.82909705e-02, 4.30485606e-01,
          -9.90381837e-02, -8.46046656e-02, -1.30609989e-01,
          -4.38225865e-01, -3.73450845e-01, -2.86769539e-01,
          -9.97443944e-02, -8.82591456e-02, -2.20082998e-01,
          2.16741055e-01, -5.48025481e-02, -2.28006616e-01,
          -1.52302042e-01, -1.77266270e-01, -2.41046131e-01,
          3.50908548e-01, 4.30189632e-02, -7.90553838e-02,
          -2.49223903e-01, -3.05149049e-01, -3.12237769e-01,
          5.09189606e-01, 3.92094344e-01, 1.53502107e-01,
          -1.73355445e-01, -2.12173358e-01, -2.85728306e-01,
          3.28806251e-01, 1.15116701e-01, -1.00107595e-01,
          -2.13173315e-01, -2.20591441e-01, -3.38445872e-01,
          6.06164277e-01, 4.43183482e-01, 3.97118568e-01,
          -1.36628905e-02, -3.92013602e-02, -1.08603388e-01,
          2.50813216e-01, 1.43376648e-01, 4.98342998e-02,
          -4.76466445e-03, -1.02685980e-01, -2.85706013e-01,
          -4.52376038e-01, -4.82962191e-01, -4.07816947e-01,
          2.47138247e-01, 1.72079489e-01, 1.07025206e-01,
          -4.50070910e-02, -3.14733922e-01, -5.45873642e-01,
          1.68010786e-01, 1.89205974e-01, 1.45180106e-01, 7.05496371e-01,
          4.09763008e-01, 3.86691429e-02, 1.95809275e-01, 2.61179149e-01,
          3.45874876e-01, 3.14911492e-02, -2.54009008e-01,
          -1.91123217e-01, 1.49856165e-01, 2.08620906e-01,
          2.56529540e-01, -4.77266684e-02, -2.14726046e-01,
          -2.49988988e-01, 2.35747859e-01, 2.96406120e-01,
          3.94109786e-01, 4.36789483e-01, 3.76902521e-01, 3.71715397e-01,
          1.43502012e-01, 2.17266724e-01, 3.65598857e-01,
          -1.64517835e-01, -2.52822280e-01, -2.47924551e-01,
          4.20141593e-02, 5.18659130e-02, 1.57462746e-01,
          -1.01248734e-01, -1.41130015e-01, -8.41627195e-02,
          8.15789178e-02, 1.00916937e-01, 9.10847262e-02,
          -4.13812138e-02, -1.56038791e-01, -1.11476861e-01,
          3.07484176e-02, 7.12498277e-02, 1.55164257e-01, 3.18960100e-01,
          1.09485529e-01, -8.56648088e-02, -1.56569630e-01,
          -1.67622864e-01, -1.64106041e-01, 7.12243617e-01,
          3.76258224e-01, -1.27035692e-01, -1.49294555e-01,
          -2.47656718e-01, -4.29464906e-01, 1.19192578e-01,
          -1.05007432e-01, -1.82753175e-01, -9.65634733e-02,
          -7.19401613e-02, -1.27416983e-01, -6.34740740e-02,
          -1.50150940e-01, -2.01826245e-01, 2.84457058e-02,
          7.01264143e-02, 2.60944804e-03, 1.22879267e-01, 2.61793703e-01,
          2.84754843e-01, -6.21077828e-02, -6.77946433e-02,
          -1.14748530e-01, -4.75512654e-01, -4.70211327e-01,
          -3.07115406e-01, -1.26091480e-01, -1.33909270e-01,
          -2.46911943e-01, -2.63280511e-01, -3.46372813e-01,
          -1.39327943e-01, -4.65948097e-02, -6.97397888e-02,
          -1.94293901e-01, -6.65644407e-02, -3.00318211e-01,
          -5.25606751e-01, 4.48568352e-02, 7.98651204e-03,
          8.58851299e-02, 2.01252222e-01, -1.87819496e-01,
          -3.22423607e-01, 4.16722149e-02, 6.76848665e-02,
          1.25651240e-01, 3.61565560e-01, 3.39541227e-01, 1.30594537e-01,
          2.55051762e-01, 3.18230093e-01, 3.81371856e-01, 4.14841436e-02,
          -2.39788219e-01, -6.00075662e-01, 1.82315648e-01,
          1.42772689e-01, 1.40292466e-01, -9.51941535e-02,
          -2.33401999e-01, -2.38947779e-01, 2.40383670e-02,
          1.56886373e-02, 6.71028942e-02, 3.44552010e-01, 3.85813773e-01,
          6.18080318e-01, -3.51187550e-02, -7.10008293e-02,
          -1.06986903e-01, 9.28482623e-04, -2.40342151e-02,
          3.04779470e-01, 2.78378297e-02, 9.84640443e-04,
          -1.42212799e-02, -4.26815212e-01, -7.02133119e-01,
          -7.78747082e-01, 1.57059237e-01, 2.37388521e-01,
          5.44629335e-01, 9.01343375e-02, -2.59520113e-01,
          -1.96222246e-01, -1.32260934e-01, -4.61412147e-02,
          5.73258549e-02, 2.44949505e-01, -1.34206727e-01,
          1.83081746e-01, 1.49395704e-01, 1.08890541e-01, 1.02875173e-01,
          2.40474150e-01, 3.44672531e-01, 4.10513252e-01,
          -5.26640192e-03, -7.94518068e-02, -5.26244566e-03,
          4.54128623e-01, 3.15368026e-01, 4.25341159e-01, 1.32893562e-01,
          2.36127988e-01, 3.89094114e-01, 3.17659438e-01, 2.14532122e-01,
          5.71721852e-01, -1.55976996e-01, -1.06801875e-01,
          1.70070827e-02, 6.30495697e-02, 1.16587579e-01, 3.52109730e-01,
          8.30389485e-02, 1.74749181e-01, 3.53336066e-01, 7.07453443e-03,
          -1.31600201e-02, 3.46650481e-01, 1.24384314e-01,
          7.62208626e-02, 5.42525835e-02, 2.55047139e-02,
          -2.65053928e-01, -6.55059293e-02, -1.48890838e-01,
          -9.33949724e-02, -7.84084648e-02, -6.56340197e-02,
          -2.96649903e-01, 2.80631900e-01, -3.31851430e-02,
          -6.24047071e-02, 3.67938839e-02, 1.70848146e-02,
          -2.24488676e-01, 3.95173728e-01 ]
      - [ 4.52235527e-02, 2.90017501e-02, 3.55649106e-02,
          -4.55815256e-01, -4.17445153e-01, -1.51093915e-01,
          1.86927363e-01, 2.00113058e-01, 1.90412387e-01, 1.99935541e-01,
          2.33793110e-01, 4.58447009e-01, 1.45111755e-01, 1.67833194e-01,
          1.57306775e-01, 5.32755017e-01, 6.20870769e-01, 9.24385726e-01,
          1.87644437e-01, 2.07983822e-01, 1.52474403e-01, 5.84075093e-01,
          7.16027856e-01, 9.85415876e-01, 2.29347005e-01, 2.68182218e-01,
          2.31185690e-01, 3.58231395e-01, 4.75765496e-01, 6.98402584e-01,
          1.31915137e-01, 1.45258307e-01, 9.56359059e-02, 2.09351592e-02,
          6.50571138e-02, 2.68852293e-01, 5.30727729e-02, 6.61928905e-03,
          -4.32535633e-02, -1.61433607e-01, -1.28321305e-01,
          1.44106939e-01, 7.35595301e-02, 1.73418857e-02, 2.04215329e-02,
          -3.50774825e-01, -1.97385415e-01, 9.31529421e-03,
          1.37391061e-01, 1.15191184e-01, 1.17255099e-01,
          -1.79779768e-01, -1.78127125e-01, 1.13955267e-01,
          -1.88462269e-02, -7.61336535e-02, -1.35858029e-01,
          6.35305882e-01, 6.44107103e-01, 7.76009619e-01,
          -1.33452043e-01, -2.48470604e-01, -3.42508495e-01,
          5.62761247e-01, 4.38268423e-01, 4.24683154e-01,
          -1.17594533e-01, -2.47285753e-01, -3.16141188e-01,
          5.61834335e-01, 3.69464725e-01, 2.72283047e-01,
          -1.26998484e-01, -2.43776932e-01, -3.02589059e-01,
          3.47815484e-01, 1.78578496e-01, 1.26053050e-01,
          -9.00244638e-02, -1.64314345e-01, -2.15475142e-01,
          2.56349176e-01, 1.70201406e-01, 1.71634689e-01, 4.63903137e-02,
          3.15511338e-02, 2.41073910e-02, 2.34663397e-01, 1.76628038e-01,
          3.10785353e-01, 2.84700822e-02, 1.52375679e-02, 2.38086339e-02,
          -3.49385738e-01, -3.39334220e-01, -1.08581036e-01,
          -4.45447117e-02, -6.06572926e-02, -8.16036314e-02,
          -9.01863426e-02, -1.30735755e-01, 1.14798166e-01,
          -1.66363508e-01, -1.92104459e-01, -1.86610401e-01,
          1.15029685e-01, -4.45228536e-03, 1.89803001e-02,
          -1.78417176e-01, -1.43200561e-01, -1.36379153e-01,
          -3.51054668e-02, -2.85336316e-01, -4.27272707e-01,
          -1.09900109e-01, -9.67590660e-02, -1.55895993e-01,
          -1.98422559e-02, -3.85337561e-01, -5.83558917e-01,
          -1.83938276e-02, -4.09072964e-03, -2.64990795e-02,
          -6.41505718e-02, -3.85434717e-01, -5.54014862e-01,
          -3.89345698e-02, -2.45105959e-02, -1.00963581e-02,
          -8.89382884e-02, -3.25935990e-01, -4.05890226e-01,
          -2.85932068e-02, -8.31430871e-03, 7.49151688e-03,
          -5.57738021e-02, -1.81879386e-01, -4.80253473e-02,
          -5.77843934e-03, -4.70913528e-03, -3.28717451e-03,
          -1.31775066e-01, -1.26480788e-01, 1.46797702e-01,
          7.46329874e-02, 5.87019473e-02, 5.77718776e-04, 1.08320974e-01,
          7.86343869e-03, 1.27810091e-01, 1.37194335e-01, 1.11823052e-01,
          7.40175471e-02, 3.12456101e-01, 1.26334891e-01, 1.56194240e-01,
          1.68846175e-01, 1.01554982e-01, 1.00792900e-01, 2.23238543e-01,
          7.74723068e-02, 1.80951580e-02, -1.09878834e-03,
          -3.94275300e-02, -2.20546536e-02, -4.26271372e-02,
          -3.47021371e-01, -6.67683423e-01, 9.55835134e-02,
          8.60509649e-02, 9.46106836e-02, 9.57161859e-02,
          -8.43738914e-02, -2.58461565e-01, 7.23422170e-02,
          4.36651073e-02, -2.21545505e-03, 7.12234229e-02,
          -3.03415023e-02, -1.17525034e-01, 5.19487560e-02,
          1.56915504e-02, -5.66317365e-02, 3.63538265e-02,
          -4.94072847e-02, -1.67655349e-02, 9.57813114e-02,
          5.65212518e-02, 1.04493182e-02, 1.84307784e-01, 1.14892587e-01,
          2.43371189e-01, -2.40822206e-03, 2.47179009e-02,
          2.10326705e-02, 2.33859554e-01, 1.00639589e-01,
          -3.74078401e-03, 1.04873516e-01, 1.00638680e-01,
          7.27702826e-02, 3.99053484e-01, 9.71865579e-02, 1.62234977e-02,
          7.69502576e-03, 4.99109887e-02, 5.36257774e-02, 3.12290847e-01,
          -3.38074379e-02, -1.08322464e-01, 4.39416841e-02,
          7.42472261e-02, 1.21514894e-01, 3.54575664e-01, 3.87814082e-02,
          -1.72969639e-01, 1.36915864e-02, 9.36114136e-03,
          4.62281518e-02, 5.66311702e-02, -2.35128552e-01,
          -2.89522231e-01, 6.55652136e-02, 2.80243419e-02,
          3.85501534e-02, -1.45258084e-01, -4.26466882e-01,
          -4.85811830e-01, 1.03528440e-01, 1.10927790e-01,
          9.17734504e-02, 1.48401931e-01, -9.63879824e-02,
          -1.85542077e-01, -4.32099998e-02, -5.03551327e-02,
          -6.60545379e-02, 2.30374355e-02, -1.24463096e-01,
          -2.09449530e-01, -1.15192551e-02, 1.57129690e-02,
          9.37194228e-02, 2.90316865e-02, -5.54355495e-02,
          1.89929511e-02, -1.33999199e-01, -1.10939436e-01,
          -1.10043600e-01, 3.64945799e-01, 1.52038291e-01,
          1.57601610e-02, -1.37561440e-01, -9.10371467e-02,
          -8.46685171e-02, 4.18217272e-01, 2.54518956e-01,
          1.40201092e-01, -1.47438720e-01, -1.32275701e-01,
          -3.10092065e-02, 2.93621510e-01, 1.77335978e-01,
          6.34974688e-02, -1.08288534e-01, -8.72938931e-02,
          -1.62692983e-02, 2.32909352e-01, 2.24060155e-02,
          6.91417977e-03, 3.14773549e-03, 1.47259273e-02, 5.30625023e-02,
          2.58275986e-01, -8.28369111e-02, -6.28278852e-02,
          2.89013120e-03, 1.92835890e-02, 7.50676244e-02, 2.58665144e-01,
          5.01014628e-02, 8.83829445e-02, 9.35790613e-02, 1.26944035e-01,
          1.61878988e-01, -1.18620031e-01, -2.48352200e-01,
          -1.25827312e-01, -3.44841853e-02, -3.70330438e-02,
          -5.90200424e-02, -5.08307070e-02, -6.30934760e-02,
          1.63495794e-01, 1.37322675e-02, 3.89220342e-02, 5.46922833e-02,
          1.68385819e-01, -1.65556408e-02, -2.29339320e-02,
          1.57735616e-01, 1.66925132e-01, 1.44683838e-01, 3.37436765e-01,
          1.81741983e-01, 5.86565323e-02, 1.89024687e-01, 1.90870792e-01,
          1.77242309e-01, 2.42588192e-01, 9.55194384e-02, 5.64070158e-02,
          2.09505916e-01, 2.31494084e-01, 1.91690385e-01, 2.01237783e-01,
          1.48974289e-03, 7.54356459e-02, 8.55048597e-02, 1.16402581e-01,
          7.44871721e-02, 3.20209950e-01, 6.30391315e-02, 8.85242447e-02,
          -1.99395284e-01, -1.99482203e-01, -2.31095925e-01,
          1.54257283e-01, -2.75290105e-02, 9.23791435e-03,
          -1.62694231e-01, -1.73933133e-01, -1.71190515e-01,
          -2.58416772e-01, -3.33173484e-01, -8.78422782e-02,
          3.93811576e-02, -5.96082807e-02, -5.08131981e-02,
          -1.68523729e-01, -2.73543686e-01, -7.95526952e-02,
          -6.53773397e-02, -6.41761422e-02, -7.76205435e-02,
          -2.70306543e-02, -1.64008081e-01, -1.21237300e-01,
          -1.21718541e-01, -9.86521617e-02, -9.55157429e-02,
          4.24449235e-01, 3.29403818e-01, 3.69836152e-01,
          -7.58242384e-02, -4.04852889e-02, 5.27758384e-04,
          4.78347212e-01, 3.66894215e-01, 3.68675828e-01,
          -1.60086215e-01, -1.54895633e-01, -1.76824242e-01,
          5.29905438e-01, 3.78219366e-01, 3.52386028e-01,
          -1.97585925e-01, -1.96863681e-01, -2.02069908e-01,
          3.43896113e-02, -1.85272545e-01, -2.96843320e-01,
          -1.02922179e-01, -1.14224046e-01, -1.23280793e-01,
          -5.50491929e-01, -7.23045051e-01, -7.74125040e-01,
          9.48754698e-02, 8.44904110e-02, 9.01221782e-02,
          -6.84038222e-01, -7.38684952e-01, -4.79659766e-01 ]
      - [ 2.20654368e-01, 1.56063870e-01, 1.71440229e-01,
          -2.30458919e-02, -2.45454833e-01, 1.23497225e-01,
          6.46045618e-03, 4.97387946e-02, -2.23774947e-02,
          4.94238704e-01, 3.24361116e-01, 5.99483967e-01, 1.46472171e-01,
          2.47978926e-01, 2.23954067e-01, 2.24956512e-01, 3.74239147e-01,
          7.20420837e-01, 2.83375144e-01, 3.56804609e-01, 2.97295809e-01,
          4.28085536e-01, 6.64959610e-01, 1.04457736e+00, 3.59506547e-01,
          5.00213146e-01, 4.67736363e-01, 4.04696703e-01, 6.13425851e-01,
          1.01858354e+00, 2.33202815e-01, 4.12114233e-01, 4.62540835e-01,
          3.05988401e-01, 2.15606183e-01, 3.54378313e-01,
          -8.65375437e-03, -5.00787832e-02, -2.03329325e-01,
          1.84399903e-01, -1.62985846e-01, 6.34140819e-02,
          2.25893542e-01, 1.07774273e-01, 1.68288335e-01,
          -4.24212277e-01, -4.52105552e-01, -1.30892769e-01,
          4.94643413e-02, 5.58868758e-02, 8.40886459e-02, 3.19103897e-01,
          2.38725357e-02, 4.58669513e-01, -6.19268864e-02,
          -7.07997903e-02, -1.18635811e-01, 2.96074510e-01,
          2.87014842e-01, 3.45568240e-01, -8.44094977e-02,
          -2.07885638e-01, -3.41266751e-01, 3.00217032e-01,
          2.99821109e-01, 2.52785236e-01, -2.42149293e-01,
          -3.70981991e-01, -5.12593091e-01, 4.49690729e-01,
          4.03451592e-01, 2.72877187e-01, -2.80235291e-01,
          -4.09232497e-01, -5.36242962e-01, 2.40313277e-01,
          2.42942199e-01, 1.37219250e-01, -2.15396449e-01,
          -2.83180565e-01, -3.89633149e-01, 3.18553954e-01,
          4.48704153e-01, 4.15039510e-01, 5.78022264e-02, 1.45408884e-01,
          1.27786919e-01, 2.57685989e-01, 1.48138702e-01, 1.58737242e-01,
          6.08537532e-02, 4.59389500e-02, 3.01899277e-02,
          -1.84686735e-01, -4.47794735e-01, -1.61840431e-02,
          -1.58588297e-03, -2.24405713e-02, -2.81206947e-02,
          6.29754364e-01, 3.63877505e-01, 8.20636690e-01,
          -1.11325696e-01, -1.33868277e-01, -4.30077799e-02,
          1.03143729e-01, 4.57321033e-02, 1.40217304e-01,
          -2.75217532e-03, 1.25195552e-02, 8.49423856e-02,
          -1.11059844e-01, -3.50378096e-01, -5.37737787e-01,
          2.42040977e-02, 5.74957170e-02, 8.32299739e-02,
          -1.00013837e-01, -3.54733557e-01, -7.33883500e-01,
          -1.81609467e-02, 3.59176248e-02, 1.12055838e-01,
          -9.04377550e-02, -2.02762693e-01, -4.79432911e-01,
          -9.46488008e-02, -1.17514707e-01, -1.65224622e-03,
          -1.70603573e-01, -2.77622670e-01, -4.18375850e-01,
          -8.99440795e-02, -8.33195224e-02, -3.16288210e-02,
          1.11470945e-01, 6.94325343e-02, 1.51190728e-01,
          -6.41500056e-02, -2.22946778e-02, -4.52016760e-03,
          -2.65160769e-01, -4.69719619e-01, -2.33428255e-02,
          -8.06429610e-02, -3.85931805e-02, -1.20294720e-01,
          6.06491268e-01, 3.93364847e-01, 6.48228347e-01, 7.88648352e-02,
          8.11998919e-02, 1.98913068e-02, 4.92077112e-01, 4.07364070e-01,
          6.00084424e-01, 4.98767830e-02, 2.95753498e-02,
          -1.27533413e-02, 3.03337038e-01, 2.38974586e-01,
          3.71576428e-01, -2.74026468e-02, -1.96640994e-02,
          -5.28780092e-03, -7.54826441e-02, -1.87750235e-01,
          -3.56502771e-01, 1.15417793e-01, 1.27640605e-01,
          8.84666815e-02, 3.32415581e-01, 3.98369431e-01, 2.94109493e-01,
          1.94921926e-01, 2.19295934e-01, 1.72380373e-01, 6.76795170e-02,
          3.11160032e-02, 8.45465139e-02, 1.53459445e-01, 1.63811669e-01,
          1.16529465e-01, 2.16501988e-02, -1.40092354e-02,
          1.95972443e-01, 1.79320961e-01, 2.23232687e-01, 1.53297275e-01,
          -1.27639621e-03, -1.95772007e-01, 1.85994610e-01,
          -9.05945972e-02, -8.24568048e-02, -7.11267591e-02,
          3.32060963e-01, 1.25763506e-01, 1.30175874e-01,
          -1.61859337e-02, -6.02794066e-02, -1.18349932e-01,
          4.98115458e-02, -1.67612642e-01, -2.14121535e-01,
          7.22011179e-02, 1.03139035e-01, 3.35989371e-02,
          -1.87458750e-02, -2.33137503e-01, -4.00238454e-01,
          2.41293125e-02, 2.19681207e-02, 2.83765830e-02, 1.54498532e-01,
          9.65059996e-02, -1.85391545e-01, -1.41268134e-01,
          -1.75081372e-01, -1.65820122e-01, -5.59154600e-02,
          -1.36096105e-01, -4.03608531e-01, -1.26486078e-01,
          -1.89554587e-01, -2.01239318e-01, -1.84990332e-01,
          -3.04847151e-01, -4.45279270e-01, -1.06077738e-01,
          -1.05939284e-01, -1.35687441e-01, 2.21486628e-01,
          2.01983571e-01, 1.58238545e-01, -3.87272350e-02,
          -3.41698304e-02, -7.33989850e-02, 1.35100558e-01,
          1.11082487e-01, 2.30827421e-01, -3.76653895e-02,
          -2.15274040e-02, 1.05082795e-01, -1.59052417e-01,
          -4.24159825e-01, -7.35503808e-02, 2.37988681e-02,
          3.01780216e-02, 5.51733226e-02, 1.16280109e-01,
          -1.85188577e-01, -2.34060436e-01, 2.75963638e-02,
          4.94770333e-02, 8.10584724e-02, 1.68549001e-01, 5.87880723e-02,
          -1.12973303e-01, -8.78638849e-02, -7.22213686e-02,
          -3.87266725e-02, 8.45549777e-02, 1.81055382e-01,
          -1.22809067e-01, -8.34862702e-03, 9.36164428e-03,
          1.60642453e-02, 5.59315234e-02, 6.85927272e-02,
          -1.27296776e-01, -2.63091121e-02, -4.90551554e-02,
          1.90472547e-02, -4.57251184e-02, -2.46044964e-01,
          -2.97921419e-01, -9.95252430e-02, -7.76302591e-02,
          6.93306774e-02, -3.15030247e-01, -3.55175346e-01,
          -1.27370924e-01, 5.49288690e-02, 7.10313991e-02,
          1.53580546e-01, -1.48927972e-01, -1.97283089e-01,
          2.05635786e-01, 5.61908372e-02, -4.09722701e-02,
          -8.05985555e-02, -5.92638962e-02, -4.94764060e-01,
          1.00329019e-01, 1.05669489e-02, -1.27417073e-02,
          1.27857234e-02, 2.99474806e-01, 2.11016461e-03, 2.38262117e-01,
          1.31385162e-01, 1.55746669e-01, 1.60905302e-01, 2.40708113e-01,
          1.23028427e-01, 7.63969421e-02, -1.21924737e-02,
          1.18235601e-02, 4.24639396e-02, 9.63360816e-02, 5.69233969e-02,
          -8.81902650e-02, -6.57959059e-02, -6.69313744e-02,
          -4.98509780e-03, 3.06449570e-02, -3.19895633e-02,
          -1.04157425e-01, -5.94646903e-03, 5.82741089e-02,
          1.02314830e-01, -5.71764633e-03, -9.81306285e-02,
          4.18588966e-02, 1.36468466e-02, -3.13751027e-02,
          -1.02104492e-01, -1.03976659e-01, -1.83691651e-01,
          2.30143085e-01, 1.29290922e-02, -5.04159667e-02,
          -7.01725334e-02, 2.87141968e-02, -1.16272144e-01,
          4.16250974e-01, -1.13611743e-01, -1.08042106e-01,
          -8.57805833e-02, -3.19253266e-01, -8.47184360e-01,
          -3.00737172e-01, -1.78516451e-02, -7.53534436e-02,
          -8.29938874e-02, 7.94711038e-02, -5.92553616e-01,
          -2.71322399e-01, 9.41668600e-02, -5.45129627e-02,
          -3.13521884e-02, 5.91459334e-01, 2.64446050e-01,
          2.94145435e-01, 1.54881969e-01, 6.84191957e-02, 1.50362164e-01,
          5.93739212e-01, 5.57827234e-01, 4.25316244e-01, 1.34640843e-01,
          3.02259829e-02, 7.97825977e-02, 4.47237909e-01, 4.29747880e-01,
          3.63890558e-01, 3.94014493e-02, -6.98725581e-02,
          -1.10277347e-01, 1.57359660e-01, -9.42919478e-02,
          -9.95738655e-02, 3.24950297e-03, -4.96838354e-02,
          -8.33512843e-02, -9.63497385e-02, -4.15092677e-01,
          -2.58318335e-01, 2.88575925e-02, 1.53345112e-02,
          4.89672460e-02, -2.01731965e-01, -3.78938705e-01,
          1.65652528e-01 ]
      - [ -3.09283659e-02, -5.81724979e-02, -4.90837395e-02,
          -1.22813217e-01, -4.10431564e-01, -6.85453415e-02,
          1.92383286e-02, 3.60752344e-02, 1.77752748e-02, 1.20591938e-01,
          5.03420718e-02, 3.42280954e-01, 4.77633364e-02, 8.86339024e-02,
          6.10008426e-02, 3.40390116e-01, 3.80110562e-01, 7.35971391e-01,
          8.14339146e-02, 1.40128657e-01, 1.23575702e-01, 3.44376087e-01,
          4.48940575e-01, 7.63633311e-01, 1.12443738e-01, 2.05099016e-01,
          2.23541126e-01, 3.18697542e-01, 4.37287778e-01, 7.43301451e-01,
          7.05998242e-02, 1.51013538e-01, 1.82660073e-01, 1.63360581e-01,
          1.78913951e-01, 4.12417173e-01, -5.81042133e-02,
          -8.94260928e-02, -1.12598814e-01, -2.94807833e-02,
          -6.78602681e-02, 1.29378632e-01, -4.65467088e-02,
          -7.83932135e-02, -6.59299120e-02, -1.08708449e-01,
          6.99207112e-02, 3.40666443e-01, -2.31226552e-02,
          -1.86866093e-02, -3.80201936e-02, -1.66200608e-01,
          -5.56184411e-01, -2.07765132e-01, -2.63747554e-02,
          -6.32856265e-02, -1.38852417e-01, 8.02830085e-02,
          1.36009057e-03, 9.36504379e-02, -8.65207464e-02,
          -1.78119883e-01, -2.92167246e-01, 2.87669420e-01,
          2.02031955e-01, 1.74964502e-01, -1.57280669e-01,
          -2.95425862e-01, -4.35368717e-01, 2.33434528e-01,
          7.47263953e-02, -4.93683703e-02, -2.44239450e-01,
          -3.75074983e-01, -4.95987952e-01, -6.22509085e-02,
          -2.06647649e-01, -2.73315012e-01, -2.26409450e-01,
          -3.26405644e-01, -4.23475325e-01, 1.79481640e-01,
          1.52784631e-01, 2.32266530e-01, 4.58691791e-02, 4.63538654e-02,
          4.66086119e-02, 1.32120565e-01, 1.68460771e-01, 4.11771804e-01,
          7.56286606e-02, 7.38557056e-02, 8.72892737e-02,
          -2.18551859e-01, -1.56370550e-01, 1.60674185e-01,
          7.52952397e-02, 9.45775583e-02, 7.77662396e-02, 4.67393249e-02,
          -2.30146348e-01, 2.87934449e-02, 2.85184719e-02,
          5.85235357e-02, 1.07060604e-01, 1.05927236e-01,
          -2.84235291e-02, -4.73479889e-02, 6.19801832e-03,
          4.87202071e-02, 1.16700545e-01, 2.65621431e-02,
          -1.79835588e-01, -3.11584353e-01, 1.02050953e-01,
          1.64683104e-01, 2.13551149e-01, -2.69181848e-01,
          -5.51076710e-01, -7.53951371e-01, 1.09482020e-01,
          1.65922329e-01, 2.31762961e-01, -3.73754084e-01,
          -6.41799510e-01, -7.95321822e-01, 1.57638062e-02,
          5.87100685e-02, 1.03394635e-01, 1.43734336e-01,
          -2.77097728e-02, -4.42679971e-02, 2.19878163e-02,
          2.32967846e-02, 1.91198122e-02, 1.91348448e-01, 1.50019839e-01,
          3.62658978e-01, 5.71128586e-03, 8.70338548e-03, 5.67183085e-03,
          -1.78056344e-01, -1.06189527e-01, 2.51880676e-01,
          -3.14042643e-02, -7.55980909e-02, -6.81700930e-02,
          5.86066917e-02, -2.80298561e-01, -8.81283283e-02,
          -3.15299593e-02, -5.52017987e-02, -6.60756305e-02,
          2.12172747e-01, 8.39885231e-03, 4.84754033e-02, 1.06054313e-01,
          7.59372264e-02, 1.30780190e-01, 4.20269698e-01, 3.28098536e-01,
          4.16633099e-01, 6.71417490e-02, 6.54040948e-02, 1.18852161e-01,
          1.33802593e-01, -1.99522916e-02, -3.27290669e-02,
          1.60521626e-01, 1.87042817e-01, 1.99476346e-01, 6.00807548e-01,
          5.67884862e-01, 5.91671407e-01, 5.76384552e-03,
          -2.18284149e-02, -4.36431579e-02, 4.56626445e-01,
          4.98957872e-01, 6.26529574e-01, -1.29716590e-01,
          -2.23219931e-01, -2.94693887e-01, 1.99490339e-01,
          1.57363161e-01, 3.38890851e-01, 4.71285880e-02, 1.30179729e-02,
          -1.82648096e-02, 5.36983162e-02, -1.11112613e-02,
          1.72743425e-01, 7.10855573e-02, 6.64119795e-02, 7.56060481e-02,
          8.77632648e-02, -3.10217917e-01, -1.80499241e-01,
          1.30364180e-01, 1.27705768e-01, 9.73642990e-02, 5.86999953e-02,
          -2.15560675e-01, -2.83613920e-01, -7.38935918e-03,
          3.58431116e-02, 1.36270700e-02, 4.02329981e-01, 2.05227911e-01,
          2.65422404e-01, -1.48501981e-03, 1.28328558e-02,
          -4.29884903e-03, 4.04589057e-01, 2.88611144e-01,
          2.51621932e-01, -2.81383008e-01, -3.12426716e-01,
          -2.33092099e-01, 3.19467247e-01, 1.81544840e-01,
          1.86496034e-01, 5.31755239e-02, -9.42810159e-03,
          -8.49215500e-03, -1.29528195e-01, -3.09250861e-01,
          -2.22135648e-01, 1.15018979e-01, 1.31620303e-01,
          1.21909782e-01, 4.40903157e-02, -1.03247486e-01,
          1.61618423e-02, -1.78683382e-02, -4.24758717e-02,
          -2.83387937e-02, -1.34140119e-01, -2.28891402e-01,
          -1.68842420e-01, 1.59891583e-02, 5.53192310e-02,
          1.16023652e-01, 2.90547073e-01, -8.78037438e-02,
          1.74291551e-01, -4.42649461e-02, -4.27292883e-02,
          -2.18220092e-02, 2.46100888e-01, -2.51995642e-02,
          -7.90831298e-02, -1.93529293e-01, -1.86856538e-01,
          -1.39771715e-01, 4.34952408e-01, 2.56486386e-01,
          3.52235407e-01, -2.68617243e-01, -2.98326224e-01,
          -1.83321863e-01, 1.85928509e-01, 1.03118591e-01,
          8.60618204e-02, -8.01468492e-02, -8.97492021e-02,
          6.50947401e-03, 1.20258175e-01, -7.56317824e-02,
          9.96085256e-02, 6.43137172e-02, 8.07871073e-02, 1.48159638e-01,
          2.35276639e-01, -7.29378089e-02, 1.03146106e-01,
          -1.51433721e-02, 2.21282691e-02, 7.53834099e-02,
          2.35993683e-01, 1.16481185e-01, 3.46385688e-01, 3.24725062e-02,
          9.07500237e-02, 1.32922992e-01, -2.16910169e-01,
          -3.00821632e-01, -2.36736704e-02, -1.52535483e-01,
          -1.42948896e-01, -1.85464039e-01, 1.11335501e-01,
          -1.82782620e-01, 1.63293794e-01, 1.55407693e-02,
          4.07372601e-02, 6.65388480e-02, 2.05617040e-01,
          -1.80121791e-02, 4.17414755e-02, 3.89003754e-02,
          5.10864705e-02, 1.14383479e-03, 2.66517460e-01, 1.21750340e-01,
          -9.17383470e-03, 1.09453887e-01, 1.60353005e-01,
          9.65772048e-02, 5.74683361e-02, -2.44778953e-02,
          -7.48140290e-02, 1.25525907e-01, 2.15708196e-01,
          1.11530334e-01, -2.63260212e-02, -1.70249209e-01,
          -3.57010700e-02, 6.34181276e-02, 1.05231561e-01,
          5.24657816e-02, 2.01507166e-01, 7.52866045e-02, 2.53780305e-01,
          -1.61179081e-01, -1.67289466e-01, -1.93937123e-01,
          1.17261030e-01, 6.05431944e-02, 3.28160167e-01,
          -6.48092255e-02, -9.79179516e-02, -1.23657018e-01,
          -2.27770373e-01, -2.32247546e-01, 1.40338585e-01,
          -3.59164923e-02, -9.84641016e-02, -8.63848031e-02,
          -5.55629849e-01, -8.93638372e-01, -6.82370663e-01,
          -1.30913600e-01, -1.26269698e-01, -1.59414336e-01,
          -1.07121922e-01, -2.42256537e-01, -8.18481669e-02,
          -8.03581476e-02, -2.21784655e-02, 2.01529078e-02,
          2.00957641e-01, 1.27829984e-01, 1.64456487e-01,
          -9.29503441e-02, -6.56032190e-02, -3.74523588e-02,
          2.42392998e-03, -3.31513025e-02, -8.29297975e-02,
          -1.96895197e-01, -2.42849454e-01, -3.19710374e-01,
          -4.74581160e-02, -1.20376967e-01, -1.65158540e-01,
          -1.19306773e-01, -1.41337186e-01, -2.08774030e-01,
          -2.36292392e-01, -4.34012681e-01, -5.12054443e-01,
          -1.02164477e-01, -1.45706475e-01, -2.13229701e-01,
          -4.61699784e-01, -5.15445292e-01, -3.94282371e-01,
          9.45740193e-02, 6.62535727e-02, 5.98001964e-02,
          -4.29957360e-01, -4.47548866e-01, -1.83592424e-01 ]
      - [ -1.08132467e-01, -1.61951005e-01, -1.69079870e-01,
          -9.16709825e-02, 1.81956261e-01, 1.82138309e-01,
          6.35920316e-02, 2.41569299e-02, -1.10370494e-01,
          -5.03619201e-02, 4.07987162e-02, -9.53897089e-02,
          5.49895391e-02, 3.63324359e-02, -1.08327167e-02,
          -2.63586819e-01, -2.67882407e-01, -6.26206577e-01,
          1.84094280e-01, 2.03436151e-01, 2.72389948e-01,
          -3.86819750e-01, -3.52734774e-01, -6.15841925e-01,
          1.89605951e-01, 2.23698512e-01, 2.88716495e-01,
          -3.65454018e-01, -2.67478675e-01, -5.44645607e-01,
          -7.01263873e-03, 2.64854152e-02, -4.42742109e-02,
          -4.25934643e-01, -4.65043336e-01, -8.54670107e-01,
          6.40749633e-02, 6.04595290e-03, -9.06540900e-02,
          -1.93655849e-01, -1.09502092e-01, -3.44412982e-01,
          2.20742282e-02, -8.39028787e-03, -4.18110453e-02,
          -1.18851818e-01, 1.26863271e-01, 1.37353959e-02,
          5.88282011e-02, -1.08480137e-02, -1.03600428e-01,
          -2.66287118e-01, -1.90453649e-01, -3.31471711e-01,
          6.05054796e-02, 5.63120656e-02, 6.82718754e-02, 3.92723605e-02,
          -9.58508439e-03, -3.45515847e-01, 1.46574199e-01,
          1.77944675e-01, 2.21893132e-01, 1.39936939e-01, 1.68873057e-01,
          -1.19151380e-02, 9.98581722e-02, 1.15528680e-01,
          1.20123848e-01, 3.27010006e-02, 1.51902705e-01, 5.68700284e-02,
          -2.57703871e-03, -7.39685399e-03, -1.77123081e-02,
          -4.67774877e-03, 1.88231379e-01, 1.56522095e-01,
          2.03008547e-01, 2.55444705e-01, 3.56736660e-01,
          -2.27205262e-01, -1.28157988e-01, -3.00555766e-01,
          1.70850586e-02, 3.17860804e-02, 4.81565893e-02,
          -3.74563336e-01, -4.17282194e-01, -8.63177598e-01,
          6.99447170e-02, 3.56561914e-02, 3.36015299e-02, 1.98100675e-02,
          2.32466474e-01, 1.34794908e-02, -5.24314679e-02,
          -1.12973183e-01, -1.72329918e-01, -1.89523265e-01,
          -3.11361283e-01, -7.05679476e-01, -8.52218270e-02,
          -1.03461958e-01, -9.11634043e-02, 2.56509006e-01,
          1.22146286e-01, -2.19919801e-01, -2.95484632e-01,
          -3.39474499e-01, -3.69272649e-01, 3.67629439e-01,
          4.29382592e-01, 3.11205924e-01, -1.28247350e-01,
          -1.20930858e-01, -1.37428492e-01, 2.09409639e-01,
          3.30710858e-01, 2.03932896e-01, -2.12330473e-04,
          7.40928203e-03, 1.56439915e-02, 1.65075943e-01, 3.00118148e-01,
          2.29267955e-01, -8.93752053e-02, -9.63028073e-02,
          -1.11624300e-01, 2.32016638e-01, 3.94119114e-01,
          3.76532435e-01, 7.86010176e-02, 7.84326419e-02, 9.88878533e-02,
          -5.70226135e-03, 3.28087211e-02, -2.30030760e-01,
          1.67098697e-02, -4.59363218e-04, -5.03152004e-03,
          3.96883637e-02, 7.67614320e-02, -1.93740323e-01,
          1.15514241e-01, 1.11916110e-01, 1.32654816e-01,
          -1.17664792e-01, -3.36655408e-01, -7.97989130e-01,
          7.48669356e-03, 6.42170981e-02, 7.27690533e-02,
          -3.12479377e-01, -4.54055369e-01, -8.67071390e-01,
          3.14219743e-02, 8.78363922e-02, 1.28696427e-01,
          -2.34376371e-01, -2.92678922e-01, -6.63792610e-01,
          1.02037385e-01, 1.11155197e-01, 1.15158826e-01, 5.88253401e-02,
          1.65154919e-01, 1.16476901e-02, 3.01175807e-02, 6.46474771e-03,
          -4.13610227e-02, 2.65853405e-01, 4.52723831e-01,
          3.39014113e-01, -4.49735858e-03, -3.80462259e-02,
          -7.49847144e-02, 6.68113604e-02, 1.55733064e-01,
          -4.39268984e-02, -3.24863708e-03, 8.82394332e-03,
          -8.73105135e-03, 3.32162715e-03, 2.92871092e-02,
          -2.48911679e-01, 1.79477353e-02, 3.25594540e-03,
          2.48323684e-03, 1.63426474e-01, 1.32946283e-01,
          -1.75415203e-01, 8.34609102e-03, 3.20692584e-02,
          5.81220910e-02, 8.52531660e-03, -1.20375328e-01,
          -3.95223022e-01, 1.81867599e-01, 1.87332630e-01,
          2.10195020e-01, 1.30752772e-01, 1.05223373e-01,
          -2.68188566e-01, 1.30665958e-01, 1.60448030e-01,
          2.43992925e-01, 6.46645904e-01, 7.64701486e-01, 4.73874599e-01,
          1.55475095e-01, 1.40326649e-01, 1.04795635e-01, 6.14705324e-01,
          7.20328212e-01, 5.06582141e-01, 1.75568387e-01, 2.13356510e-01,
          2.36221477e-01, 6.35354221e-01, 8.11914265e-01, 6.70905292e-01,
          1.10345475e-01, 1.44895226e-01, 1.86362758e-01, 3.74109894e-01,
          4.44432139e-01, 2.51002520e-01, 1.70720577e-01, 1.77141130e-01,
          2.40166157e-01, 1.74207628e-01, 1.43595621e-01,
          -1.24814324e-01, 8.96039084e-02, 8.66575092e-02,
          1.56783685e-01, 2.12020829e-01, 1.56217635e-01,
          -3.85837220e-02, 6.91377521e-02, 9.18873325e-02,
          1.05844632e-01, 1.69083253e-02, -9.44952667e-02,
          -2.66294152e-01, -1.72575146e-01, -2.34350190e-01,
          -1.97393760e-01, 4.67859991e-02, -1.17805175e-01,
          -2.72467107e-01, -1.84806302e-01, -2.53037781e-01,
          -2.55038708e-01, 5.07770121e-01, 6.22846246e-01,
          4.99485135e-01, -3.41977254e-02, 1.01455245e-02,
          -4.14493523e-04, 7.74148881e-01, 1.08150184e+00,
          8.41111422e-01, -7.91977160e-04, -1.19541278e-02,
          1.42350281e-02, 5.64192533e-01, 8.51463497e-01, 8.02425146e-01,
          -1.40119627e-01, -1.91479817e-01, -1.28666207e-01,
          2.85252571e-01, 3.75509292e-01, 3.83957803e-01,
          -1.28763333e-01, -1.58174798e-01, -1.53645962e-01,
          1.08566701e-01, -1.93347968e-02, -1.92381039e-01,
          -1.27938509e-01, -1.20317362e-01, -1.11646861e-01,
          3.89858596e-02, -3.63900047e-03, -6.45656735e-02,
          -4.36463133e-02, -4.07292731e-02, -1.04669491e-02,
          1.12809502e-01, 9.28990170e-02, 2.56145038e-02, 3.54165249e-02,
          8.93418938e-02, 9.36410800e-02, 6.63396791e-02,
          -9.35390145e-02, -2.53638983e-01, 2.66562738e-02,
          8.03050548e-02, 8.38109013e-03, 1.50985554e-01, 2.40323544e-02,
          2.54916400e-02, -7.11251274e-02, 1.46358851e-02,
          -3.22236009e-02, 2.71082729e-01, 2.84688622e-01,
          5.27533650e-01, -5.45150489e-02, 1.66916798e-04,
          -9.66249257e-02, 1.36346072e-01, 2.02736631e-01,
          4.50721979e-01, 3.88929248e-02, 4.11415026e-02,
          -5.41375987e-02, 6.27272204e-02, 1.17910979e-02,
          -5.64552844e-02, -1.81916971e-02, 3.52230109e-02,
          1.30812963e-03, -2.50622034e-02, -9.89065990e-02,
          -3.32103401e-01, 5.98166436e-02, 1.05021946e-01,
          6.45347387e-02, -8.32742676e-02, -4.48526144e-02,
          -1.19586758e-01, -1.98219158e-02, -6.41412362e-02,
          -5.37770838e-02, -1.15733318e-01, -1.36980176e-01,
          -1.35249943e-01, -1.04823053e-01, -1.01661578e-01,
          -5.22440970e-02, -3.44025856e-03, 4.45199832e-02,
          1.02830753e-01, -1.39716342e-01, -7.64441937e-02,
          2.17142282e-03, 1.73980311e-01, 3.39975953e-01, 4.21758235e-01,
          -1.99980795e-01, -2.10260645e-01, -1.93734184e-01,
          3.62461388e-01, 4.78581011e-01, 5.12154520e-01,
          -1.46651149e-01, -2.21736848e-01, -2.32673272e-01,
          2.65332669e-01, 3.03598791e-01, 3.00841868e-01,
          -2.71722972e-02, -3.12005379e-03, 4.75562438e-02,
          1.49472833e-01, 1.25668332e-01, -2.19112495e-03,
          1.46717325e-01, 2.04585508e-01, 2.64573812e-01, 5.89243062e-02,
          2.07847208e-01, 1.07548550e-01, 2.72666607e-02, 6.62640482e-02,
          9.38921496e-02, -4.36805654e-03, 1.71126187e-01,
          9.51522514e-02 ]
      - [ 3.67136486e-02, 2.09013689e-02, 3.92190786e-03, 1.15098491e-01,
          1.09274715e-01, -2.05404200e-02, -9.09942836e-02,
          -1.36454329e-01, -1.90722913e-01, 1.09677158e-01,
          -1.55349737e-02, -2.79307187e-01, -2.01099426e-01,
          -1.96928412e-01, -2.33901843e-01, -2.23950356e-01,
          -4.51221943e-01, -8.80085409e-01, -1.25285670e-01,
          -1.21003814e-01, -1.34392619e-01, -2.94744462e-01,
          -4.91820812e-01, -9.30303991e-01, -1.89177543e-01,
          -1.83838993e-01, -1.94164813e-01, -1.44574434e-01,
          -2.89423436e-01, -6.84906185e-01, -2.20755011e-01,
          -2.52404153e-01, -2.97664672e-01, 1.64475162e-02,
          -7.72973299e-02, -4.09499466e-01, -9.48953703e-02,
          -1.08542353e-01, -1.65496871e-01, 4.46340710e-01,
          4.58261400e-01, 3.46460909e-01, -2.70753726e-02,
          -3.08419578e-02, -4.27782834e-02, 1.83653727e-01,
          1.74287364e-01, 7.08909109e-02, -6.33817958e-03,
          -1.41689302e-02, -1.72985438e-02, 2.01783150e-01,
          1.61108211e-01, -9.50182136e-03, 1.93192977e-02,
          8.66585001e-02, 1.81198299e-01, -1.11594163e-01,
          -2.38669172e-01, -4.77745295e-01, 2.14763761e-01,
          3.00608456e-01, 4.49889570e-01, -1.17400326e-02,
          -7.98961967e-02, -1.82375193e-01, 1.76170126e-01,
          2.44321167e-01, 4.00229990e-01, -8.18844214e-02,
          -1.53746694e-01, -2.96469003e-01, 2.21207231e-01,
          2.78387219e-01, 4.27895635e-01, -1.22024372e-01,
          -1.69618398e-01, -2.53053010e-01, 2.21560076e-01,
          2.95237869e-01, 4.34028774e-01, -9.15003568e-02,
          -1.51577711e-01, -2.43420154e-01, -4.13002595e-02,
          -2.44907048e-02, 1.14861876e-02, 2.70696217e-03,
          -5.39323799e-02, -2.19900280e-01, 2.73050144e-02,
          4.04878929e-02, 6.05359524e-02, 2.30261818e-01, 2.04775035e-01,
          5.79426251e-02, -8.70648772e-02, -7.56399184e-02,
          -9.05373022e-02, 1.14670880e-01, 7.71398917e-02,
          -1.66593418e-01, 2.83602644e-02, 4.81816120e-02,
          6.23145998e-02, -6.49270741e-03, 8.28278512e-02,
          1.06227890e-01, -1.59170374e-01, -1.46709874e-01,
          -1.86866760e-01, 3.75545114e-01, 5.55119932e-01,
          7.61582792e-01, -1.12318732e-01, -1.02956839e-01,
          -1.20323382e-01, 4.00099605e-02, 1.41270399e-01,
          2.97777742e-01, -1.14806965e-02, -1.67528521e-02,
          -4.59320061e-02, 1.36371821e-01, 2.15864077e-01,
          3.39641422e-01, -1.32482469e-01, -1.43663749e-01,
          -2.11705580e-01, 3.91721785e-01, 5.00754058e-01,
          6.05164587e-01, -7.63515830e-02, -9.36029702e-02,
          -1.52647287e-01, 1.61143795e-01, 2.22731695e-01,
          1.40676945e-01, 7.39223137e-03, 1.10172865e-03,
          -3.62009294e-02, 1.58736363e-01, 1.52899325e-01,
          1.95094012e-02, 4.39290963e-02, 4.36343029e-02, 5.64897805e-02,
          5.15326392e-03, -5.92719764e-02, -3.85720015e-01,
          8.90855305e-03, 3.54771838e-02, 1.47104654e-02,
          -3.57032090e-01, -3.85766119e-01, -6.44122005e-01,
          -6.06102832e-02, -7.44896755e-02, -1.11706384e-01,
          -1.84394941e-01, -1.58573359e-01, -3.67419064e-01,
          6.79722009e-03, -4.85760113e-03, -5.70106395e-02,
          -3.12751889e-01, -2.04811186e-01, -2.58757949e-01,
          2.23624371e-02, 2.23863870e-02, -1.25827845e-02,
          -1.29572704e-01, -8.79528597e-02, -1.69311538e-01,
          -1.44977588e-02, -4.38441895e-02, -1.38005868e-01,
          -6.76202551e-02, -9.52890590e-02, -3.76670897e-01,
          5.11042997e-02, 4.56209853e-02, -2.62701660e-02,
          -1.92987457e-01, -1.86593622e-01, -4.80472714e-01,
          -6.26195446e-02, -8.89618918e-02, -1.01014242e-01,
          1.44292265e-01, 7.08773434e-02, -2.13095769e-01,
          1.15477778e-01, 1.28544062e-01, 1.32476822e-01, 5.25214553e-01,
          5.14502048e-01, 4.02040631e-01, 1.52595401e-01, 1.90655991e-01,
          2.75948584e-01, 1.37616441e-01, 2.00371563e-01, 1.22940935e-01,
          2.07073927e-01, 2.45972455e-01, 3.22234303e-01, 1.53417706e-01,
          2.09924027e-01, 1.14680566e-01, 1.64773643e-01, 1.52593732e-01,
          1.57462418e-01, 2.95383006e-01, 4.02523488e-01, 3.93583477e-01,
          1.34174794e-01, 1.56052768e-01, 1.81736782e-01, 3.57088029e-01,
          4.44327325e-01, 3.79732758e-01, 1.14942417e-01, 1.37740597e-01,
          2.08416820e-01, 3.33300263e-01, 3.46081227e-01, 1.78166419e-01,
          5.37440106e-02, 3.33335474e-02, 8.63331854e-02, 7.47325271e-02,
          7.66319558e-02, -5.08023947e-02, 6.20452315e-02,
          7.84296840e-02, 1.30415723e-01, 3.25464010e-01, 2.40607738e-01,
          6.46227598e-02, -2.79886216e-01, -3.19556653e-01,
          -3.11620533e-01, 2.57045388e-01, 2.26525515e-01,
          1.22005045e-01, -9.53992233e-02, -1.66578546e-01,
          -2.22295180e-01, 1.62172005e-01, 1.75149575e-01,
          1.63795233e-01, -1.49928391e-01, -1.83619976e-01,
          -2.13855430e-01, 1.96207494e-01, 2.86538869e-01,
          2.40446210e-01, -1.81527451e-01, -2.22390413e-01,
          -2.00386345e-01, 2.09530592e-01, 3.74808073e-01,
          2.77230978e-01, -1.06865667e-01, -1.36668190e-01,
          -1.45109624e-01, 9.37193334e-02, 2.35017762e-01,
          1.15258574e-01, -1.44081995e-01, -1.61224127e-01,
          -1.52718142e-01, 1.46066323e-02, 7.92768896e-02,
          2.93046143e-02, -3.20622809e-02, -9.47239771e-02,
          -1.61826059e-01, 3.15078907e-02, -5.91270402e-02,
          -2.17971519e-01, -7.16719404e-02, -6.85977489e-02,
          -8.19308162e-02, 2.75283277e-01, 1.58794656e-01,
          -3.51425470e-03, 3.60082090e-02, 3.11035961e-02,
          7.51136616e-02, 2.39458121e-02, -6.37976006e-02,
          -8.29576030e-02, 5.12843467e-02, 5.21454923e-02,
          5.59250824e-02, -7.54787400e-03, -1.19426660e-01,
          -2.12728024e-01, 3.26642916e-02, 4.79463972e-02,
          5.46475276e-02, 1.06303349e-01, 7.35609084e-02, 1.12449862e-01,
          1.87703129e-02, 2.44559590e-02, 1.07127219e-01, 1.00654684e-01,
          9.16335136e-02, 1.80574939e-01, 2.12962423e-02, 2.17814557e-02,
          7.49493390e-02, 2.78187878e-02, 1.44006917e-02, 8.35395828e-02,
          5.88905774e-02, 3.92640792e-02, 3.53771122e-03, 3.79797583e-03,
          -8.28171894e-02, -1.16436876e-01, -4.54320945e-02,
          -3.08269151e-02, 8.00479650e-02, 7.23224953e-02,
          -1.62065148e-01, -3.12881887e-01, 3.93135957e-02,
          5.54067902e-02, 1.26541331e-01, 3.13739091e-01, 2.64383376e-01,
          2.70466655e-01, 8.78446996e-02, 8.01720843e-02, 6.18703999e-02,
          1.88144609e-01, 1.17539279e-01, 2.54145026e-01,
          -5.17985560e-02, -6.65508285e-02, 4.65734340e-02,
          2.82157212e-01, 2.41347075e-01, 4.73013788e-01, 2.58017071e-02,
          6.76442385e-02, 1.48827463e-01, 6.70774728e-02, 8.16038474e-02,
          1.58307061e-01, -1.40131965e-01, -1.44673601e-01,
          -1.82767466e-01, 2.02773616e-01, 2.31099188e-01,
          3.07877153e-01, -1.47145808e-01, -1.46149546e-01,
          -1.46778300e-01, 1.97340205e-01, 1.81227952e-01,
          2.33786091e-01, -5.96631207e-02, -6.92524686e-02,
          -6.90838471e-02, 2.13403851e-01, 1.44192114e-01,
          1.33671165e-01, 5.04734032e-02, 4.42973189e-02, 9.16741788e-02,
          -7.81406555e-03, -1.75491318e-01, -4.73231114e-02,
          -2.48250380e-01, -2.61918128e-01, -2.33232155e-01,
          -3.86482179e-02, -1.36951491e-01, -4.25819270e-02 ]
      - [ 1.89075992e-02, 1.07325371e-02, 3.01604513e-02,
          -7.87010014e-01, -4.98553455e-01, -5.23994148e-01,
          3.00071657e-01, 2.69615859e-01, 1.51802406e-01, 1.85189977e-01,
          3.53361517e-01, 2.90147811e-01, 5.92313819e-02, 1.31170684e-02,
          -3.08852848e-02, 1.28993183e-01, 1.43021360e-01,
          -1.57314971e-01, 2.28330255e-01, 1.97486967e-01,
          2.21215218e-01, 5.13799861e-02, 1.08910371e-02,
          -3.23496431e-01, 3.03531319e-01, 2.97874779e-01,
          3.65226388e-01, 7.23404661e-02, 6.03199452e-02,
          -3.06124330e-01, 1.00854158e-01, 8.23696852e-02,
          6.00620508e-02, 7.66619071e-02, 9.71683264e-02,
          -2.38460377e-01, 2.65615553e-01, 2.23735720e-01,
          1.62781447e-01, 9.21640396e-02, 3.31677645e-01, 3.34075123e-01,
          -1.31632453e-02, -4.03080881e-02, -5.75438067e-02,
          -5.94228148e-01, -2.91564852e-01, -2.47143418e-01,
          1.91425577e-01, 1.54403999e-01, 1.02276117e-01,
          -3.43853861e-01, -1.52013868e-01, -2.25982040e-01,
          7.54946023e-02, 6.02778941e-02, 7.34888762e-02, 4.82305110e-01,
          4.70203459e-01, 2.49245033e-01, 1.87931955e-01, 1.87558711e-01,
          1.94150299e-01, 4.32163090e-01, 3.33934128e-01, 1.14314616e-01,
          5.86766982e-03, -1.55274039e-02, -5.71692595e-03,
          4.12725747e-01, 2.53938496e-01, -4.63324450e-02,
          -1.13957897e-01, -1.42820567e-01, -1.67180255e-01,
          3.62512857e-01, 2.63453394e-01, 5.50708696e-02, 2.41035242e-02,
          1.27643514e-02, 5.41895181e-02, 2.78902560e-01, 2.42978081e-01,
          8.24233815e-02, -2.98377238e-02, -5.96798733e-02,
          -6.08114563e-02, 3.83981377e-01, 4.42884117e-01,
          2.87252247e-01, 1.12245508e-01, 8.88030529e-02, 8.98425430e-02,
          -3.06142628e-01, -4.82977107e-02, -6.26033768e-02,
          -9.92908701e-02, -1.35769054e-01, -2.07371846e-01,
          -3.10695469e-01, -2.57984728e-01, -5.65204144e-01,
          -2.45609358e-02, -2.63973046e-02, -2.46430486e-02,
          1.74738288e-01, 6.51168898e-02, -2.32329994e-01,
          -3.14480245e-01, -2.98236549e-01, -3.31346363e-01,
          4.01277125e-01, 3.02255243e-01, 6.50173426e-02,
          -2.86320388e-01, -2.85573065e-01, -3.40670288e-01,
          -7.43765682e-02, -3.51811469e-01, -7.39382148e-01,
          1.12158048e-03, -4.04858636e-03, -7.67261907e-02,
          -1.35323247e-02, -2.61321098e-01, -6.11862183e-01,
          -1.25765979e-01, -1.39758125e-01, -1.96940213e-01,
          3.36357616e-02, -9.80779752e-02, -3.07993084e-01,
          -1.33827853e-03, -4.50746492e-02, -1.16603620e-01,
          7.59737268e-02, -3.84328305e-03, -2.66127169e-01,
          -5.04230149e-03, -3.59870680e-02, -7.32828230e-02,
          -4.54207659e-02, 6.77348673e-02, -2.57348530e-02,
          2.08623067e-01, 1.96979731e-01, 2.17027932e-01,
          -8.61991197e-02, -1.16408005e-01, -5.16333461e-01,
          1.93364441e-01, 2.04819530e-01, 1.74652666e-01,
          -4.83713932e-02, -2.27376297e-01, -7.16452360e-01,
          1.24109700e-01, 1.31052583e-01, 1.83290377e-01,
          -1.23833627e-01, -2.60124445e-01, -6.00300670e-01,
          9.59597528e-02, 1.04647376e-01, 1.64136380e-01,
          -2.38294125e-01, -4.29908305e-01, -8.14079046e-01,
          1.31853729e-01, 1.32859871e-01, 1.51301861e-01, 2.60332730e-02,
          -1.70455977e-01, -5.65680206e-01, 6.44077808e-02,
          7.12058544e-02, 7.44511038e-02, -2.02339187e-01,
          -3.30890000e-01, -7.02791512e-01, 2.89515927e-02,
          4.94182818e-02, 4.59718145e-02, -3.31987701e-02,
          -1.58928603e-01, -5.98711669e-01, 6.53710067e-02,
          5.53666167e-02, 6.43581226e-02, 2.49064431e-01, 3.01757813e-01,
          8.19270164e-02, 5.07317930e-02, 6.79946467e-02, 1.08075261e-01,
          5.65590501e-01, 5.57763457e-01, 2.57022738e-01, 6.83495477e-02,
          7.59240016e-02, 1.05469346e-01, 6.16963863e-01, 4.67291653e-01,
          -8.35564453e-03, 5.50889969e-02, 6.28320053e-02,
          8.26144442e-02, 5.15033364e-01, 3.10128659e-01, 4.62635700e-03,
          1.86637461e-01, 1.79670319e-01, 1.93965614e-01, 5.02971530e-01,
          2.93697953e-01, -3.08207655e-03, 1.75892413e-01,
          2.04906762e-01, 2.08441377e-01, 5.31147063e-01, 3.50477606e-01,
          1.00761496e-01, 9.01259780e-02, 9.24109071e-02, 9.63299945e-02,
          4.42081571e-01, 2.95045137e-01, -5.93359955e-02,
          5.81626818e-02, 3.46728638e-02, 7.19514564e-02, 4.88010794e-01,
          3.32992852e-01, -5.27460128e-02, -2.75032017e-02,
          -1.48878386e-02, -1.82897449e-02, 3.25174481e-01,
          3.73871922e-01, 2.46873379e-01, -1.03137970e-01,
          -1.00877717e-01, -7.24072903e-02, 3.42559040e-01,
          3.71749043e-01, 1.65394038e-01, -1.69725865e-01,
          -1.83636829e-01, -1.31627560e-01, 3.77641559e-01,
          1.96868405e-01, -1.36106819e-01, -2.06728011e-01,
          -2.21034229e-01, -2.21204862e-01, 5.30940294e-01,
          3.76377404e-01, 4.39194404e-02, -1.72859013e-01,
          -1.41736910e-01, -1.35704741e-01, 5.86533487e-01,
          5.04770100e-01, 1.15263931e-01, -9.72487181e-02,
          -8.88691843e-02, -7.91020691e-02, 3.91008735e-01,
          3.33266973e-01, 3.77180092e-02, -1.12772316e-01,
          -1.29419714e-01, -8.66846442e-02, 3.95408690e-01,
          2.28738785e-01, -2.35547349e-02, -1.13104798e-01,
          -1.08505070e-01, -8.98796842e-02, 4.33674186e-01,
          2.67251015e-01, 3.00138183e-02, -1.24984011e-01,
          -1.04837187e-01, -8.95845667e-02, -6.55735359e-02,
          4.01975214e-02, -4.42162789e-02, -3.09775807e-02,
          -3.02256290e-02, -2.29548011e-02, -1.65748084e-03,
          1.21400528e-01, 6.21290468e-02, 7.15377778e-02, 1.55172035e-01,
          1.88580915e-01, 3.77970338e-01, 2.85725921e-01, 1.14203393e-01,
          3.73462997e-02, 7.70893544e-02, 4.27585803e-02, 4.07437086e-01,
          1.71588331e-01, 4.37982334e-03, 5.29229157e-02, 5.35097383e-02,
          7.12559149e-02, 3.66226584e-01, 1.11202851e-01,
          -3.05893812e-02, 1.29193515e-01, 1.40907779e-01,
          1.45023182e-01, 1.92770556e-01, -2.97887176e-02,
          -9.63934287e-02, 9.15130824e-02, 1.49995998e-01,
          1.43754870e-01, 4.43978429e-01, 3.11422378e-01, 1.86034873e-01,
          -1.07839458e-01, -3.41396183e-02, -2.16652192e-02,
          2.39335656e-01, 2.61842430e-01, 1.12056188e-01, 7.42738023e-02,
          1.31782949e-01, 1.36225328e-01, -2.23520726e-01,
          -2.36060489e-02, -2.20810268e-02, 4.19469550e-02,
          -3.53632048e-02, -6.86103776e-02, 6.84622154e-02,
          1.49615645e-01, 5.61082773e-02, -1.62026942e-01,
          -1.65880397e-01, -1.65487021e-01, 2.62688905e-01,
          3.46175402e-01, 3.05980355e-01, -3.19832414e-01,
          -2.64597744e-01, -1.96601331e-01, 4.63988721e-01,
          5.33133745e-01, 5.48342526e-01, -1.80479065e-01,
          -7.77566284e-02, 5.37541462e-03, 6.74728215e-01,
          5.68450391e-01, 5.16265810e-01, -1.19315274e-01,
          -1.00449361e-01, -8.43302384e-02, 6.87408447e-01,
          5.39084911e-01, 4.95270371e-01, -2.10176602e-01,
          -1.93939611e-01, -1.82538912e-01, 2.42132738e-01,
          2.23426104e-01, 1.27892032e-01, -6.83958307e-02,
          -6.94434121e-02, -6.71580434e-02, -3.28603089e-01,
          -1.77727699e-01, -2.53966361e-01, -2.93190926e-02,
          -5.04595228e-02, -8.51326212e-02, -5.23812473e-01,
          -3.19999993e-01, -3.74918669e-01 ]
      - [ 2.11143106e-01, 1.93921939e-01, 2.03759804e-01,
          -1.67644963e-01, -1.10588364e-01, -1.27508700e-01,
          -4.07621413e-02, 6.21432578e-03, -1.91633254e-01,
          -2.71589477e-02, -7.10666031e-02, -1.81657866e-01,
          6.85925335e-02, 1.22720703e-01, 9.25600827e-02,
          -6.62147284e-01, -4.96058762e-01, -9.44579601e-01,
          3.27367514e-01, 3.06140780e-01, 3.23861748e-01,
          -5.37532628e-01, -3.63607109e-01, -8.34066272e-01,
          3.97128731e-01, 4.56765622e-01, 5.11709332e-01,
          -3.84818673e-01, -2.63478339e-01, -7.26863563e-01,
          1.24525689e-01, 2.23602667e-01, 1.86304852e-01,
          -1.18853450e-01, -1.63028970e-01, -7.19595611e-01,
          6.70212880e-02, 3.63363922e-02, -1.59945741e-01,
          3.18402886e-01, 2.16303781e-01, 1.18040055e-01, 1.50921702e-01,
          8.63107666e-02, 7.90625140e-02, -2.76852250e-01,
          -3.50880355e-01, -2.66954333e-01, 1.14254102e-01,
          7.89948925e-02, 2.88974289e-02, 3.04231852e-01, 2.18960747e-01,
          1.67370602e-01, 1.30336970e-01, 1.48485899e-01, 1.67686358e-01,
          1.79390863e-01, 2.85250485e-01, -6.85401186e-02,
          1.80900559e-01, 1.17121525e-01, 1.27408877e-01, 4.71789300e-01,
          6.34228408e-01, 4.24178094e-01, 7.11283609e-02, 3.78464982e-02,
          6.07425086e-02, 3.10565680e-01, 4.08253759e-01, 8.00734162e-02,
          -9.85098779e-02, -1.41914606e-01, -1.69275388e-01,
          1.65636271e-01, 3.05073351e-01, 3.50623876e-02, 7.78901204e-02,
          7.28798062e-02, 1.25658229e-01, 2.73257434e-01, 4.71137255e-01,
          2.25810081e-01, 6.88553080e-02, 1.49205491e-01, 1.54389545e-01,
          2.98302650e-01, 3.30684811e-01, -4.09947708e-02,
          1.10510081e-01, 1.20365523e-01, 9.40511525e-02, 1.24500453e-01,
          -2.85972301e-02, 6.08729199e-02, -8.46915841e-02,
          -7.41300881e-02, -1.00326963e-01, 3.23404253e-01,
          2.06937060e-01, -6.67397827e-02, -2.49710128e-01,
          -2.83247590e-01, -2.82027900e-01, 2.39455141e-02,
          7.73547068e-02, -2.24174768e-01, -4.29530323e-01,
          -4.85664159e-01, -5.41991591e-01, 1.91885471e-01,
          1.34650290e-01, -3.02913748e-02, -2.95317382e-01,
          -2.81169325e-01, -2.74073035e-01, -1.98948324e-01,
          -2.76019931e-01, -6.24178469e-01, -1.62982345e-01,
          -1.24675237e-01, -1.08404651e-01, -5.09493686e-02,
          -1.75754465e-02, -3.75215143e-01, -3.74032468e-01,
          -4.32769984e-01, -4.22052830e-01, -6.35906355e-03,
          -3.33376713e-02, -2.80828565e-01, -2.10163504e-01,
          -2.78423727e-01, -3.30540419e-01, 2.00628981e-01,
          2.37700537e-01, -1.68855473e-01, 2.32746769e-02,
          4.44450267e-02, 3.21807079e-02, 2.02973112e-01, 1.23158405e-02,
          -1.25493826e-02, 9.17044804e-02, 1.34638041e-01,
          1.38626844e-01, 2.12841406e-01, 2.25735769e-01,
          -1.14752136e-01, 2.21308902e-01, 2.72115290e-01,
          2.45183945e-01, -3.24738860e-01, -2.95098007e-01,
          -7.16084599e-01, 1.37515128e-01, 2.31219023e-01,
          2.40624472e-01, -3.47818911e-01, -3.24269772e-01,
          -6.13920569e-01, 1.40329972e-01, 1.78202137e-01,
          1.92343935e-01, -5.68580031e-01, -4.37115669e-01,
          -6.69927001e-01, 1.45564795e-01, 1.69807315e-01,
          1.69881135e-01, -8.62415582e-02, 4.35136370e-02,
          -2.96990842e-01, 2.59278268e-01, 3.34562838e-01,
          2.86500275e-01, -2.73990780e-01, -2.92903960e-01,
          -6.34162307e-01, 2.74179459e-01, 3.33197325e-01,
          2.90521502e-01, 1.91398747e-02, -1.75264361e-03,
          -5.08259475e-01, 1.40974358e-01, 1.60891041e-01,
          1.45066381e-01, 4.01321977e-01, 3.04753542e-01, 2.45083541e-01,
          1.73233298e-03, 1.11973397e-02, 6.44228309e-02, 5.66780686e-01,
          6.67545199e-01, 4.46512073e-01, 1.21937767e-02,
          -2.79263835e-02, 5.62498625e-03, 3.99256885e-01,
          4.63746160e-01, 1.07187694e-02, 2.29500368e-01, 2.26205721e-01,
          2.29687929e-01, 1.78744540e-01, 2.19026878e-01,
          -1.57442182e-01, 1.01513408e-01, 6.12316392e-02,
          3.87471020e-02, 1.90556511e-01, 2.87276566e-01,
          -3.97534929e-02, 4.66918610e-02, 3.62917744e-02,
          1.35298241e-02, 4.88102853e-01, 6.04361594e-01, 1.97632909e-01,
          2.13454086e-02, 7.98082817e-03, 2.09477693e-02, 4.09905791e-01,
          4.67485249e-01, 4.25135680e-02, -6.16687872e-02,
          -8.43908712e-02, -6.96086837e-03, 5.41931868e-01,
          5.56532741e-01, 5.09917811e-02, 3.03389039e-02, 4.05918136e-02,
          7.60926157e-02, 7.79124856e-01, 7.50641108e-01, 8.17960978e-01,
          -1.08996019e-01, -1.77810758e-01, -1.41534701e-01,
          1.37154937e-01, 1.25640139e-01, 1.19534418e-01,
          -1.43683389e-01, -1.46592304e-01, -9.28615257e-02,
          2.15655655e-01, 1.84617475e-01, -1.40036885e-02,
          -4.81153913e-02, -9.34445858e-02, -6.57571703e-02,
          3.48415136e-01, 3.29580128e-01, -1.22205867e-02,
          -6.56955615e-02, -4.10884619e-02, -1.04021840e-01,
          5.86881518e-01, 7.77694464e-01, 2.46082246e-01,
          -6.06911220e-02, -8.04769620e-02, -1.33214787e-01,
          3.73455793e-01, 5.61557651e-01, 7.41979778e-02,
          -1.58979431e-01, -2.27001131e-01, -1.64211512e-01,
          6.89308718e-02, 4.55199089e-03, -3.32347214e-01,
          -1.47000238e-01, -1.53178245e-01, -6.86902553e-02,
          1.26772881e-01, 4.47036289e-02, -1.31007865e-01,
          -2.37171963e-01, -2.48331368e-01, -1.72027946e-01,
          2.08482891e-01, 1.35857001e-01, 4.55274433e-01, 1.50119979e-02,
          -3.89465429e-02, 3.85076851e-02, 1.32180098e-02,
          -2.46213093e-01, 8.32854360e-02, 6.12114407e-02,
          -3.07023269e-03, 4.14982587e-02, 1.75217092e-01,
          1.29995063e-01, 1.11022085e-01, 6.37121573e-02, 1.60919785e-01,
          1.31373644e-01, 2.46222824e-01, 1.97714046e-01, 9.72751155e-02,
          -7.02236071e-02, -7.54664913e-02, 2.53515765e-02,
          3.22453499e-01, 2.21949190e-01, 7.31725292e-03,
          -7.77435973e-02, -8.50737467e-02, 3.00998315e-02,
          1.80918500e-01, 1.23475678e-01, -8.61973986e-02,
          4.82841283e-02, 1.17067836e-01, 2.28600234e-01, 2.83814460e-01,
          2.75245070e-01, 1.96178705e-01, -4.44301171e-03,
          -2.47643180e-02, 5.27896322e-02, 1.53269768e-01,
          1.15231313e-01, 3.56198102e-01, 2.31220216e-01, 2.53820688e-01,
          2.83179671e-01, 1.74487218e-01, 4.95093726e-02, 5.76753378e-01,
          -5.74053451e-02, -5.41940331e-02, -1.20660074e-01,
          1.24096945e-01, -2.42180035e-01, 6.21105209e-02,
          -2.53715143e-02, -6.88272491e-02, -9.75682214e-02,
          4.38314408e-01, 4.55792844e-02, 1.98746175e-01,
          -2.28761695e-02, -1.70829728e-01, -6.14127815e-02,
          6.17109537e-01, 4.82259214e-01, 3.96860927e-01,
          -2.56224647e-02, -1.27856404e-01, -4.94364351e-02,
          7.76138008e-01, 7.35671699e-01, 5.41746855e-01, 4.90459148e-03,
          -1.17702357e-01, -4.85713296e-02, 6.24424219e-01,
          5.87687910e-01, 5.19713700e-01, -5.44845052e-02,
          -1.53842539e-01, -9.33170468e-02, 3.77973348e-01,
          2.21498966e-01, 3.87984037e-01, 2.93932632e-02, 6.24878798e-04,
          -4.83661219e-02, -1.26175836e-01, -3.60991716e-01,
          -1.85697954e-02, -2.93009818e-01, -3.01660746e-01,
          -3.30275565e-01, 7.26562962e-02, -1.04782723e-01,
          3.77216756e-01 ]
      - [ 2.18194090e-02, -2.52930410e-02, -2.47936253e-03,
          -3.44734579e-01, -3.46830934e-01, -4.01436865e-01,
          7.46475458e-02, 4.72855233e-02, -2.50003710e-02,
          3.90383154e-02, 6.73985332e-02, -1.72336940e-02,
          -1.30099013e-01, -1.40911743e-01, -2.03587592e-01,
          -4.37700041e-02, -5.28243296e-02, -3.21373194e-01,
          1.46378100e-01, 1.51419893e-01, 1.45532936e-01,
          -1.35449752e-01, -9.12456810e-02, -4.55695391e-01,
          7.80821890e-02, 9.19413492e-02, 9.96316150e-02, 1.02068253e-01,
          1.93205476e-01, -1.77928895e-01, 8.08987990e-02,
          1.11352339e-01, 8.82506445e-02, 1.59809366e-01, 2.30094030e-01,
          -8.98477286e-02, 2.78555322e-02, -6.53907016e-04,
          -4.99125533e-02, 1.55529723e-01, 2.89774626e-01,
          1.99126273e-01, -9.64772329e-02, -1.14757672e-01,
          -1.09999865e-01, -2.80817449e-01, -4.12471071e-02,
          -2.37336271e-02, 2.59588379e-02, 1.70604251e-02,
          -4.45092730e-02, -1.24604158e-01, -2.66346037e-01,
          -3.65603894e-01, 2.61100978e-02, 4.15139794e-02,
          1.06638772e-02, 2.24806458e-01, 1.52409524e-01,
          -1.44260570e-01, 4.91178371e-02, 5.84893487e-02,
          7.02511966e-02, 4.03651208e-01, 4.03596133e-01, 1.70912683e-01,
          -3.34446616e-02, -5.00979833e-02, -3.71769108e-02,
          1.56601831e-01, 1.36063993e-01, -1.57436624e-01,
          -1.79827720e-01, -2.16701463e-01, -2.48051837e-01,
          -2.30466705e-02, -1.27348518e-02, -2.59824395e-01,
          -3.72902006e-02, -5.15381172e-02, -7.62587786e-03,
          2.67192364e-01, 3.62316996e-01, 2.88591266e-01, 1.03103323e-02,
          2.65594982e-02, 6.08557910e-02, 2.01568365e-01, 3.65398556e-01,
          2.74507642e-01, 1.00113824e-01, 9.21761394e-02, 9.71012264e-02,
          -1.98984072e-01, 3.14020291e-02, 4.71687317e-02,
          4.91637625e-02, 4.78789657e-02, -3.60096176e-03,
          -8.26214030e-02, -2.31427699e-01, -5.52843094e-01,
          -2.76516285e-02, 1.32349622e-03, 1.62031222e-02,
          2.98508495e-01, 2.30998918e-01, -1.32480457e-01,
          -2.97710806e-01, -3.04038644e-01, -3.18713903e-01,
          2.82884955e-01, 3.14009577e-01, 1.91892564e-01,
          -7.19386190e-02, -3.37902866e-02, 1.59367062e-02,
          -2.56847441e-01, -2.91805744e-01, -5.31247497e-01,
          1.00852683e-01, 1.39944315e-01, 1.45345747e-01,
          -2.37426072e-01, -3.07431251e-01, -6.08331621e-01,
          -2.16452181e-01, -1.77691966e-01, -1.70153037e-01,
          2.61130244e-01, 2.96754032e-01, 1.96425065e-01,
          -6.64234459e-02, -9.69636142e-02, -1.45861194e-01,
          2.46598423e-01, 3.65933448e-01, 2.22253397e-01, 8.01568106e-03,
          -4.22231946e-03, -2.95767542e-02, -1.22233734e-01,
          8.98617581e-02, 7.86268786e-02, 7.18177333e-02, 5.47448695e-02,
          8.28891173e-02, -5.08859754e-02, -2.59372950e-01,
          -6.89100027e-01, -1.77971981e-02, -7.81708397e-03,
          -2.98585277e-02, -2.20933631e-01, -3.32895666e-01,
          -8.42552841e-01, 1.53543577e-01, 1.82205692e-01,
          2.14198321e-01, 3.58571336e-02, 3.42685580e-02,
          -1.77179798e-01, 2.00406507e-01, 2.17718169e-01,
          2.29587615e-01, 6.60463348e-02, 1.06864177e-01,
          -4.80055213e-02, 1.32797852e-01, 1.68080673e-01,
          2.21941456e-01, 2.21314162e-01, 3.53996485e-01, 2.37957284e-01,
          9.44618434e-02, 1.03373803e-01, 6.51544929e-02, 8.22671875e-02,
          2.57155955e-01, 2.12973163e-01, -6.61531389e-02,
          -6.42332956e-02, -9.85290557e-02, 1.59128472e-01,
          2.98418164e-01, 8.17427337e-02, -2.22077202e-02,
          -4.19848338e-02, -6.68901354e-02, 2.67100930e-02,
          1.95243448e-01, 4.16092798e-02, 6.38081878e-02, 5.04032597e-02,
          1.01515792e-01, 2.14034602e-01, 7.58688897e-03,
          -2.55741805e-01, 1.56891257e-01, 1.43911526e-01,
          1.79647893e-01, 1.38727263e-01, 4.91993912e-02,
          -4.18774366e-01, 1.34028852e-01, 1.35392770e-01,
          1.75902709e-01, 5.72443962e-01, 5.28266490e-01, 2.59731799e-01,
          1.13654621e-01, 1.11932874e-01, 8.43366012e-02, 4.46003616e-01,
          5.05842686e-01, 3.47518086e-01, 2.13632286e-02, 1.39141912e-02,
          4.41721305e-02, 5.42742312e-01, 6.87525511e-01, 6.05868340e-01,
          1.43296450e-01, 1.34151056e-01, 1.26659364e-01, 3.89903367e-01,
          5.02207875e-01, 4.03460532e-01, 4.03645374e-02, 1.72064174e-02,
          5.32338098e-02, 1.57320336e-01, 2.63438880e-01, 6.63342774e-02,
          2.91731004e-02, 1.60856918e-02, 4.56307642e-02, 4.48356830e-02,
          1.76119536e-01, 2.64700619e-03, -6.67854548e-02,
          -4.58540246e-02, -3.04775834e-02, 2.02521637e-01,
          1.29320398e-02, -1.11816332e-01, -9.26624835e-02,
          -1.37924001e-01, -1.07477687e-01, 2.57893711e-01,
          4.28298227e-02, -2.77459949e-01, -1.12350680e-01,
          -1.06599703e-01, -1.43367872e-01, 5.63641667e-01,
          4.89214420e-01, 4.41709906e-01, -2.02150062e-01,
          -2.08671257e-01, -1.86039641e-01, 4.32922542e-01,
          5.50666988e-01, 4.23185110e-01, -1.41173869e-01,
          -1.81773707e-01, -1.26357943e-01, 2.35938996e-01,
          4.00364876e-01, 3.86558443e-01, -1.26550823e-01,
          -1.43681005e-01, -4.22829017e-02, 2.57468492e-01,
          3.03709745e-01, 3.55040818e-01, -6.40258268e-02,
          -5.36843985e-02, -4.65936922e-02, 1.40091928e-03,
          4.52374481e-02, -8.27652402e-03, -1.03253968e-01,
          -7.03208745e-02, -3.30671594e-02, -2.71826744e-01,
          -1.22384235e-01, -1.70208186e-01, -1.34806663e-01,
          -1.15408674e-01, -7.63638094e-02, -7.38141164e-02,
          -9.99480560e-02, -4.18078452e-02, 6.54624999e-02,
          1.45352229e-01, 2.12808430e-01, 3.11893761e-01, 1.99076861e-01,
          1.02848019e-02, -5.72949909e-02, -3.43423709e-02,
          -7.42792562e-02, 1.08897991e-01, 9.55239870e-03,
          -1.16066299e-01, -8.34181625e-03, 1.36852171e-02,
          3.03166844e-02, -5.19115478e-02, -1.62892845e-02,
          -1.08911939e-01, -2.79675703e-04, 4.60690036e-02,
          3.04220151e-02, -2.05339983e-01, -1.15575016e-01,
          -7.22129494e-02, 1.57302469e-02, 5.04946187e-02,
          1.51910288e-02, 8.94136354e-02, 2.45937750e-01, 3.45714122e-01,
          -5.46031184e-02, 1.81535650e-02, 5.43256216e-02,
          -2.29470115e-02, 1.99578643e-01, 2.67596036e-01,
          1.11916818e-01, 1.71527386e-01, 2.18349218e-01,
          -3.55725348e-01, -1.07879704e-03, 1.60929233e-01,
          -3.25221545e-03, -5.60039282e-02, -7.10191429e-02,
          -3.44117731e-01, -3.28089625e-01, -2.80342013e-01,
          -1.61492720e-01, -1.42479748e-01, -1.30560577e-01,
          1.74284399e-01, 3.56512308e-01, 4.69359815e-01,
          -9.87920463e-02, -6.42760517e-03, 1.06667183e-01,
          1.75594967e-02, 1.83583841e-01, 2.35663280e-01,
          -1.57533437e-01, -1.06113732e-01, -4.39876877e-02,
          -3.27671207e-02, 4.25939970e-02, 1.16074532e-02,
          -2.15218663e-01, -2.64584094e-01, -3.29377383e-01,
          -1.21443033e-01, -4.70745899e-02, -9.80344340e-02,
          -1.26600832e-01, -1.27147600e-01, -1.52989045e-01,
          -1.79852977e-01, -3.85126434e-02, -5.11490330e-02,
          -6.91077486e-02, -9.37418342e-02, -1.15843549e-01,
          -4.32977200e-01, -8.12550336e-02, 5.69914915e-02,
          -1.36240885e-01, -1.63045585e-01, -1.92663074e-01,
          -4.23960149e-01, -6.63683191e-02, 4.86814193e-02 ]
      - [ 1.52225792e-01, 9.30276811e-02, 5.71164079e-02, 3.72844078e-02,
          -3.97253960e-01, -4.99731690e-01, -2.09609568e-01,
          -2.64419645e-01, -3.24781895e-01, 4.54624258e-02,
          -3.62541676e-01, -6.21366203e-01, -3.37732911e-01,
          -3.13522100e-01, -3.47168565e-01, -1.42943665e-01,
          -3.80642802e-01, -5.87806284e-01, -3.81503403e-01,
          -3.47018719e-01, -3.49251658e-01, -7.59154484e-02,
          -3.30573171e-01, -6.24589026e-01, -3.30748349e-01,
          -2.55138010e-01, -1.94108233e-01, 1.94397196e-01,
          7.48683140e-02, -1.84802726e-01, -3.88520658e-01,
          -4.08056498e-01, -3.81115913e-01, 2.47579157e-01,
          1.85186446e-01, 2.56196931e-02, -1.73177630e-01,
          -1.18959039e-01, -1.83872625e-01, 5.01928985e-01,
          4.75470543e-01, 4.17764127e-01, 1.28320619e-01, 1.79343373e-01,
          1.93972602e-01, 1.21480256e-01, -8.41585025e-02,
          -2.23978639e-01, 7.60196298e-02, 1.13096006e-01,
          1.35877430e-01, 5.38681746e-01, 5.76157495e-02,
          -1.91763639e-01, 1.07311399e-03, 1.51622236e-01,
          3.21451426e-01, -4.54246074e-01, -6.62598252e-01,
          -8.12187016e-01, 3.03618759e-01, 4.52185065e-01,
          6.37830257e-01, -3.59395862e-01, -2.26358280e-01,
          2.30929963e-02, 2.61701971e-01, 3.37964177e-01, 4.04262811e-01,
          -3.65330338e-01, -2.46934101e-01, -1.88368961e-01,
          1.35712832e-01, 1.80845544e-01, 2.76103705e-01,
          -3.43871444e-01, -2.07553729e-01, 1.04709230e-01,
          2.38623962e-01, 3.64223391e-01, 5.08272469e-01,
          -2.04332843e-01, -1.47405369e-02, 1.98520750e-01,
          -6.21762574e-02, 1.97392721e-02, 2.12220848e-02,
          -1.90604299e-01, -1.35105893e-01, -3.82636398e-01,
          -1.28407091e-01, -1.07795961e-01, -1.41692400e-01,
          1.89867824e-01, 5.56188077e-02, -1.13836952e-01,
          -5.91749214e-02, 8.74975137e-03, 5.62165491e-02,
          4.98441190e-01, 3.22374344e-01, 7.76419118e-02, 9.41089094e-02,
          6.44499883e-02, -4.91833352e-02, 4.94167805e-02,
          2.82578468e-01, 5.25680065e-01, -4.00324464e-02,
          -1.25471771e-01, -3.00312877e-01, 2.00079784e-01,
          6.23019099e-01, 1.09047401e+00, 3.48084420e-02,
          -1.02849947e-02, -3.10044680e-02, 1.17052004e-01,
          3.26264590e-01, 6.45541131e-01, 5.22934757e-02,
          -4.40666713e-02, -1.20848402e-01, -6.06588311e-02,
          1.24597967e-01, 5.43655396e-01, -1.43058345e-01,
          -2.36404359e-01, -3.78563911e-01, -8.58186036e-02,
          1.87358633e-01, 5.96004248e-01, 1.03954583e-01, 1.09116644e-01,
          1.47951573e-01, -5.23462556e-02, 1.85637638e-01,
          3.22436154e-01, 6.19373694e-02, 1.02173641e-01, 1.43077061e-01,
          -1.23491623e-01, -9.70555544e-02, -1.76614419e-01,
          -1.15506984e-01, -5.61312549e-02, -2.38963421e-02,
          1.55469730e-01, 8.22786018e-02, -1.12579390e-01,
          -4.47033122e-02, -6.91417605e-02, -6.94978535e-02,
          -1.58516809e-01, -2.48151228e-01, -4.55348611e-01,
          -2.04312652e-01, -2.80542850e-01, -3.51626396e-01,
          -6.57499302e-03, 2.25575671e-01, 2.19095334e-01,
          -2.16375560e-01, -1.96690321e-01, -2.08278418e-01,
          -2.26246923e-01, -1.65326044e-01, -1.81203350e-01,
          -1.80798769e-02, 2.04679407e-02, 5.57631180e-02,
          -1.99546829e-01, -2.20101357e-01, -2.41232291e-01,
          5.71877435e-02, 1.05319932e-01, 1.24969594e-01,
          -3.56580436e-01, -3.80836159e-01, -5.71621597e-01,
          1.92748345e-02, 2.14075893e-02, -3.93974259e-02,
          -2.65663773e-01, -1.20060876e-01, -1.44015387e-01,
          -8.37068334e-02, -5.40355220e-02, -2.74827983e-02,
          -1.65125541e-03, 1.32100314e-01, 7.78763592e-02,
          2.18005225e-01, 2.39297122e-01, 2.50098586e-01, 8.51402760e-01,
          9.14179921e-01, 1.05314219e+00, 1.70860022e-01, 2.92233586e-01,
          4.23484534e-01, 7.38646537e-02, 1.65504277e-01, 3.92337143e-01,
          -3.06863878e-02, -3.14063244e-02, -2.19477732e-02,
          -4.88618225e-01, -3.59676093e-01, -1.16490141e-01,
          3.46689150e-02, 3.66078364e-03, -6.28238022e-02,
          -3.39470208e-01, -2.46442586e-01, -5.40096276e-02,
          -1.72094911e-01, -1.83091223e-01, -2.11298794e-01,
          -5.37486076e-01, -4.11347151e-01, -2.27512196e-01,
          4.37226184e-02, 4.51557301e-02, 5.20719327e-02,
          -1.51798189e-01, 8.94649848e-02, 2.49776900e-01,
          7.38667697e-02, 8.36413801e-02, 1.64012358e-01,
          -7.34290108e-02, 2.11102143e-01, 4.94727135e-01,
          -3.21161896e-02, 4.91349073e-03, 8.59682560e-02,
          2.66552549e-02, 2.25937709e-01, 4.20482576e-01,
          -2.67772555e-01, -3.94139886e-01, -3.87360990e-01,
          5.32805741e-01, 4.92676020e-01, 5.45037985e-01,
          -1.10969618e-01, -2.35108629e-01, -4.43015486e-01,
          1.25186071e-01, 2.91362107e-01, 3.73790979e-01, 3.64440791e-02,
          1.13643482e-02, -1.10468775e-01, -5.16975820e-01,
          -4.37469035e-01, -5.90864241e-01, 1.66573584e-01,
          1.96910247e-01, 1.15550660e-01, -2.44437948e-01,
          -1.27677321e-01, -3.75352859e-01, 5.98598532e-02,
          3.78861725e-02, -5.00054657e-02, -6.51307344e-01,
          -6.34426057e-01, -8.59712839e-01, -2.10425347e-01,
          -2.52688318e-01, -3.20304066e-01, -2.82374650e-01,
          -6.86096698e-02, -1.61218017e-01, -8.33270028e-02,
          -2.13057637e-01, -3.94838095e-01, 1.21057019e-01,
          2.89242387e-01, 4.35645521e-01, 1.98483542e-01, 7.84924030e-02,
          2.03323718e-02, 2.60204852e-01, 1.54490486e-01, 1.71463788e-01,
          8.10374469e-02, 3.62135842e-02, 3.00092008e-02, 2.92560607e-01,
          -1.47523403e-01, -2.05339044e-01, 2.56693274e-01,
          2.47011870e-01, 2.57472634e-01, 2.32805416e-01, 4.34178598e-02,
          -8.32257122e-02, 1.67854682e-01, 1.80139452e-01,
          2.79683650e-01, -1.16734840e-01, -1.15217566e-02,
          5.07899420e-03, -6.51081651e-02, -1.27870530e-01,
          1.22121111e-01, 1.17049575e-01, 1.95475861e-01, 8.43814015e-02,
          7.51248375e-02, 5.55540510e-02, 8.49619955e-02,
          -5.81016205e-02, 1.54544720e-02, -2.39095371e-03,
          1.58450335e-01, 1.61395416e-01, 1.69516459e-01,
          -1.01045616e-01, 3.46706174e-02, 4.03550677e-02,
          5.34349419e-02, 4.20749150e-02, 2.27054983e-01,
          -1.29771397e-01, -3.42377543e-01, -2.68629313e-01,
          2.17332654e-02, 3.75104509e-02, 4.44835052e-02, 4.50698733e-02,
          -2.85936475e-01, 1.05889618e-01, 6.15205206e-02,
          3.91931124e-02, 4.06808071e-02, 2.93602377e-01,
          -1.21206559e-01, -3.98271671e-03, -9.41688716e-02,
          -2.05932632e-01, -9.69908684e-02, 4.45124477e-01,
          1.08981796e-01, 3.95542294e-01, 1.77167449e-02, 5.02184294e-02,
          1.52075559e-01, 7.85519630e-02, 9.73895788e-02, 8.46773535e-02,
          -2.56783992e-01, -1.91487044e-01, -2.00616732e-01,
          -1.92186385e-01, -1.26097411e-01, -2.48334363e-01,
          -2.02074304e-01, -1.59024447e-01, 2.94801723e-02,
          -1.47010878e-01, -2.76443437e-02, 4.91280220e-02,
          2.10315019e-01, 1.99632272e-01, 3.32543969e-01, 5.10466933e-01,
          6.60907984e-01, 9.96751070e-01, 1.45658612e-01, 1.36545464e-01,
          1.43876493e-01, 5.74754000e-01, 3.10630530e-01, 8.81620646e-01,
          9.81159583e-02, 1.23020127e-01, 1.44442350e-01, 4.39190239e-01,
          1.52149603e-01, 6.74804628e-01 ]
      - [ 1.05775580e-01, 1.55262575e-01, 1.69237018e-01,
          -7.68097997e-01, -6.77185416e-01, -6.93909764e-01,
          1.80025056e-01, 1.61500350e-01, 1.72178566e-01, 3.54069501e-01,
          4.77462530e-01, 7.62114942e-01, -9.61039215e-02,
          -1.69943854e-01, -2.26141915e-01, 5.10297656e-01,
          4.28568363e-01, 6.03044808e-01, 7.06117898e-02, 2.61750594e-02,
          2.39727441e-02, 5.13255358e-01, 3.35087568e-01, 4.36564147e-01,
          3.65148813e-01, 3.55801076e-01, 4.41977054e-01, 3.61665606e-01,
          1.83381677e-01, 2.61730641e-01, 2.25997597e-01, 1.86407700e-01,
          2.22922221e-01, 1.95571676e-01, 2.17086166e-01, 4.14179385e-01,
          2.22316310e-01, 2.13061437e-01, 2.24461779e-01,
          -4.73669656e-02, 1.06181614e-01, 4.27205980e-01,
          2.42840592e-02, 1.02956663e-03, 3.52226049e-02,
          -3.49268436e-01, -1.08703099e-01, 1.51816100e-01,
          1.62515283e-01, 1.87863067e-01, 2.31195599e-01,
          -8.19909424e-02, 1.05501615e-01, 2.05243766e-01,
          -6.14133812e-02, -1.19621463e-01, -1.71731412e-01,
          6.66876912e-01, 6.71144128e-01, 8.35533798e-01,
          -2.88695171e-02, -4.71058190e-02, -9.95817035e-02,
          4.08718079e-01, 5.95107526e-02, 4.19454388e-02,
          -1.48708716e-01, -1.76421970e-01, -2.08555475e-01,
          4.85625267e-01, 1.20913558e-01, 1.08129337e-01,
          -1.21393338e-01, -1.52428538e-01, -1.82355955e-01,
          6.71739459e-01, 3.14639539e-01, 3.56380820e-01,
          -1.26913860e-02, -8.54924694e-02, -1.23740971e-01,
          6.60543144e-01, 5.04670024e-01, 6.45208716e-01,
          -8.61098841e-02, -1.31529361e-01, -1.85512066e-01,
          5.71819365e-01, 6.52942479e-01, 8.90220344e-01,
          -1.08096391e-01, -1.30859956e-01, -1.56488970e-01,
          -2.83756912e-01, -1.55602157e-01, 1.08073361e-01,
          -9.85931903e-02, -8.51825550e-02, -9.32306051e-02,
          -2.90484369e-01, -9.36419591e-02, 2.20339540e-02,
          -1.73390098e-02, -5.86609915e-02, -7.56842867e-02,
          -4.06230479e-01, -5.03697395e-01, -4.82234716e-01,
          -1.23196609e-01, -7.64039382e-02, -6.32344335e-02,
          -1.70082361e-01, -3.91599238e-01, -3.98356825e-01,
          -2.73223132e-01, -3.40375811e-01, -4.47995275e-01,
          -2.81838715e-01, -7.60929286e-01, -9.65460002e-01,
          2.00967267e-02, 6.32695202e-03, -4.82819267e-02,
          -5.69344386e-02, -4.76795048e-01, -5.33664942e-01,
          -4.07246985e-02, -3.48124430e-02, -4.05411907e-02,
          -2.60113388e-01, -6.17374480e-01, -5.70077837e-01,
          -1.01199068e-01, -1.06699176e-01, -8.71598572e-02,
          -2.63607532e-01, -4.59188312e-01, -4.25064325e-01,
          -8.23908001e-02, -9.05792490e-02, -1.22675128e-01,
          -2.52258867e-01, -1.69359863e-01, 1.73134892e-03,
          2.11983472e-01, 2.28995398e-01, 2.55543023e-01,
          -1.59255743e-01, -8.22743587e-03, 1.53614312e-01,
          1.67993918e-01, 1.26022995e-01, 1.29512951e-01, 1.25366732e-01,
          -7.21147358e-02, -4.19794656e-02, 7.40658939e-02,
          -3.46537195e-02, -4.21842607e-03, 2.10750356e-01,
          -5.68903377e-03, 2.14949876e-01, 4.21442017e-02,
          4.94801998e-02, 1.66465789e-01, -4.53190833e-01,
          -9.29240525e-01, -1.10174918e+00, 6.44472912e-02,
          6.42186329e-02, 1.72051519e-01, -1.23385839e-01,
          -5.35810530e-01, -4.90746409e-01, 3.21812630e-01,
          3.42905879e-01, 3.52281570e-01, 1.26033574e-01,
          -8.98819491e-02, 1.77715912e-01, 4.19464298e-02,
          1.20446151e-02, -5.90739679e-03, 1.12540029e-01,
          -6.38752012e-03, 8.93003196e-02, 1.49753867e-02,
          -3.15643894e-03, -3.17748152e-02, -8.87037665e-02,
          3.53440568e-02, 9.07540545e-02, 3.19527239e-02, 4.41904552e-02,
          1.40857147e-02, 3.20006013e-01, 4.84140217e-01, 5.63648939e-01,
          8.91509727e-02, 1.10190190e-01, 3.10295951e-02, 3.56628507e-01,
          1.49607539e-01, 1.86422154e-01, -6.24883212e-02,
          -5.58029152e-02, -1.45341486e-01, -1.41872808e-01,
          -5.80785811e-01, -3.86489004e-01, -3.10478080e-02,
          -6.86833411e-02, -7.05635101e-02, -3.30930948e-01,
          -8.57674837e-01, -7.34809160e-01, 5.07292487e-02,
          2.43186522e-02, -7.07700178e-02, -3.94301772e-01,
          -9.45622504e-01, -7.71167278e-01, -1.43409863e-01,
          -1.69639423e-01, -2.59871751e-01, -1.93649065e-02,
          -3.90645057e-01, -1.63061813e-01, 8.36327672e-03,
          -1.20680518e-02, -7.25871325e-02, 1.04608633e-01,
          -1.91685244e-01, -2.56539255e-01, -4.93877418e-02,
          -1.70142781e-02, -4.40686680e-02, -2.54233450e-01,
          -1.84158713e-01, -1.65372863e-01, -7.22374320e-02,
          -6.31444678e-02, -4.48899157e-03, 5.89823760e-02,
          3.12264293e-01, 4.23504114e-01, -8.02110322e-03,
          4.75814193e-02, 6.93177655e-02, 4.14153218e-01, 3.56981039e-01,
          1.68939501e-01, 5.77262230e-03, 6.40081316e-02, 1.00266756e-02,
          2.49778718e-01, -8.55055898e-02, -2.02975839e-01,
          -6.77150711e-02, -4.80520204e-02, -3.02312709e-02,
          1.41859949e-01, -3.77983928e-01, -3.66800934e-01,
          1.56818494e-01, 2.65116632e-01, 2.05685675e-01, 1.72489628e-01,
          -2.60092437e-01, -3.47595215e-01, 7.66003430e-02,
          1.60226345e-01, 1.22408643e-01, 4.26417142e-01, 1.64328247e-01,
          7.29633644e-02, 4.39338833e-02, 8.99251848e-02, 1.16948798e-01,
          3.87833238e-01, 2.90805638e-01, 2.18295977e-01, 7.79434144e-02,
          9.83833671e-02, 1.09070510e-01, -1.61968216e-01,
          6.31409958e-02, 1.41233131e-01, -3.67619358e-02,
          -2.33377255e-02, -3.25361714e-02, -2.75237948e-01,
          -2.91530583e-02, 1.65531322e-01, -2.54427176e-02,
          -1.85087714e-02, 2.84876209e-02, 4.12479460e-01,
          4.21072900e-01, 4.08498168e-01, 1.44629821e-01, 1.29032597e-01,
          2.27202684e-01, 6.68108463e-01, 4.17922884e-01, 4.17781860e-01,
          1.61234692e-01, 1.07974792e-02, 2.04603672e-01, 4.57762927e-01,
          9.14103165e-02, -1.17564410e-01, 4.51018810e-02,
          -1.00534201e-01, 1.21997975e-01, 5.47329903e-01,
          1.92860365e-01, 8.73822272e-02, 1.43887863e-01, 1.43945917e-01,
          1.80594191e-01, 5.58632076e-01, 2.91026801e-01, 4.39581215e-01,
          -5.61393686e-02, -2.81116627e-02, -2.03003902e-02,
          4.25302893e-01, 4.56579864e-01, 5.40964127e-01, 8.17274228e-02,
          3.54843363e-02, 4.65130173e-02, -1.20616414e-01,
          -4.83889366e-03, 9.46901739e-03, 8.34931731e-02,
          4.64009605e-02, -5.46922674e-03, -1.35035813e-01,
          1.09620720e-01, 2.40327895e-01, -1.35716841e-01,
          -1.71587661e-01, -2.30901465e-01, 1.92488637e-02,
          -1.82513613e-02, -1.00538410e-01, -3.21254313e-01,
          -3.63756120e-01, -5.02002895e-01, 2.56077081e-01,
          -8.59060735e-02, -2.12027058e-01, -1.38502464e-01,
          -8.89973789e-02, -2.27551848e-01, 5.63751578e-01,
          1.03886463e-01, 3.17360312e-02, -1.25282094e-01,
          -5.14510199e-02, -1.81200072e-01, 6.99885547e-01,
          2.74949253e-01, 2.36705199e-01, -4.33336258e-01,
          -4.34741616e-01, -5.14727294e-01, 2.36132890e-01,
          9.66624543e-02, 5.05953208e-02, -3.75028014e-01,
          -4.18276846e-01, -4.60738569e-01, -3.73283595e-01,
          -3.42236847e-01, -3.25252593e-01, -7.98144639e-02,
          -7.36483857e-02, -8.44930634e-02, -3.23502153e-01,
          -2.91178584e-01, -2.91376024e-01 ]
      - [ 3.41166377e-01, 3.65463257e-01, 3.55885148e-01,
          -1.86003000e-02, -1.85162038e-01, -3.30024093e-01,
          -8.99340659e-02, -6.53027073e-02, -1.31520197e-01,
          4.38165218e-01, 2.68889159e-01, -8.56647715e-02,
          2.67742909e-02, 6.92096949e-02, 1.16350412e-01,
          -6.39846995e-02, -3.87866423e-02, -2.66778171e-01,
          2.14747339e-02, 1.09722111e-02, 6.85895756e-02,
          -2.30198041e-01, -2.37190515e-01, -2.94918895e-01,
          2.16278940e-01, 2.70067126e-01, 3.63652140e-01,
          -1.22815400e-01, -1.27570748e-01, -4.91393507e-02,
          2.07258984e-01, 2.96424568e-01, 4.39988822e-01, 3.42160836e-03,
          2.99024917e-02, 3.32753174e-02, 3.56741436e-02, 6.68685436e-02,
          6.92316368e-02, 3.17988843e-01, 1.76145792e-01, 2.10015863e-01,
          1.82417884e-01, 1.42651051e-01, 1.90740570e-01,
          -3.93092602e-01, -4.10324901e-01, -3.41817826e-01,
          8.17970783e-02, 8.94953310e-02, 1.08585730e-01, 6.64118469e-01,
          4.65772629e-01, 2.80065686e-01, -9.14752707e-02,
          -5.68715781e-02, 1.72715150e-02, 1.42915502e-01,
          1.72506452e-01, -1.23514056e-01, 5.23220673e-02,
          5.37437536e-02, 1.41650185e-01, 2.64255852e-02, 2.92874016e-02,
          2.68133935e-02, -7.77778625e-02, -7.36685917e-02,
          -1.07036181e-01, 1.63497359e-01, 1.65233433e-01,
          2.17849031e-01, -9.12896469e-02, -1.31499588e-01,
          -2.17018619e-01, 1.25690401e-01, 8.44587535e-02,
          1.14656381e-01, -8.37332010e-02, -1.40237033e-01,
          -1.52706832e-01, 2.00227872e-01, 2.49065816e-01,
          3.79976869e-01, -6.28319234e-02, -3.00463289e-02,
          -3.41683663e-02, 2.46318191e-01, 2.93960601e-01,
